<?xml version="1.0"?>
<opencv_storage>
<stage10>
  <maxWeakCount>6</maxWeakCount>
  <stageThreshold>-0.8730812668800354</stageThreshold>
  <weakClassifiers>
    <_>
      <internalNodes>
        0 -1 635295 -2061774443 -583008215 -2130575075 -788290555
        -1870053288 -670957563 1223860677 -1135226352</internalNodes>
      <leafValues>
        -0.71830987930297852 0.22448979318141937</leafValues></_>
    <_>
      <internalNodes>
        0 -1 501864 1074890906 -1858016873 285283592 1829273603
        -861402438 -1535107016 -939425559 1354088978</internalNodes>
      <leafValues>
        -0.68934077024459839 0.37781655788421631</leafValues></_>
    <_>
      <internalNodes>
        0 -1 67528 1921363307 1565071 9699600 26530320 1208653887
        3186688 1816212004 -1162878845</internalNodes>
      <leafValues>
        -0.67409837245941162 0.46103864908218384</leafValues></_>
    <_>
      <internalNodes>
        0 -1 697 -2129592216 1343291523 -1073741515 809762817 1249976638
        -1912602493 -2013232502 -1264483832</internalNodes>
      <leafValues>
        -0.68543171882629395 0.52725464105606079</leafValues></_>
    <_>
      <internalNodes>
        0 -1 100783 -16533 -1207980113 -1367347529 1807728639 2013134820
        1040187390 2013262836 -1090617601</internalNodes>
      <leafValues>
        -0.53644591569900513 0.65422344207763672</leafValues></_>
    <_>
      <internalNodes>
        0 -1 609854 1628801007 1211269136 -1048410750 1560283149 2981930
        419430408 1090596904 1126777547</internalNodes>
      <leafValues>
        -0.71454864740371704 0.51169025897979736</leafValues></_></weakClassifiers></stage10>
</opencv_storage>
