<?xml version="1.0"?>
<opencv_storage>
<stage11>
  <maxWeakCount>6</maxWeakCount>
  <stageThreshold>-0.88270366191864014</stageThreshold>
  <weakClassifiers>
    <_>
      <internalNodes>
        0 -1 555782 -767831307 -213712894 -2130704370 -721420285
        -1064655231 -1015021566 -1039940856 -76481011</internalNodes>
      <leafValues>
        -0.79153096675872803 0.14675767719745636</leafValues></_>
    <_>
      <internalNodes>
        0 -1 6987 1126375766 1091636134 151045300 1354006695 201337371
        -494925822 -1668758845 597042011</internalNodes>
      <leafValues>
        -0.82958191633224487 0.28526890277862549</leafValues></_>
    <_>
      <internalNodes>
        0 -1 540691 1343546641 -1840196593 -1861662392 1201246603
        204014612 692060296 -1979643822 1814497837</internalNodes>
      <leafValues>
        -0.69338053464889526 0.41677474975585938</leafValues></_>
    <_>
      <internalNodes>
        0 -1 523644 1101206843 177438725 1075841072 -1861222399
        1283638281 -1308098428 -2076172232 -880320382</internalNodes>
      <leafValues>
        -0.6370772123336792 0.49449872970581055</leafValues></_>
    <_>
      <internalNodes>
        0 -1 502194 -2120936128 -1047478175 20975905 -1819111413
        -268164991 990019760 -2013198021 2134131724</internalNodes>
      <leafValues>
        -0.69521647691726685 0.51023215055465698</leafValues></_>
    <_>
      <internalNodes>
        0 -1 591023 1363951765 -896168942 4688 -1844785119 1359317187
        -1977614175 -2046686181 -1844526591</internalNodes>
      <leafValues>
        -0.67728430032730103 0.51765668392181396</leafValues></_></weakClassifiers></stage11>
</opencv_storage>
