<?xml version="1.0"?>
<opencv_storage>
<stage1>
  <maxWeakCount>7</maxWeakCount>
  <stageThreshold>-0.44510316848754883</stageThreshold>
  <weakClassifiers>
    <_>
      <internalNodes>
        0 -1 55243 -673449985 -680143401 -246099237 -579386753
        -202592837 -89151253 -100946785 -12321841</internalNodes>
      <leafValues>
        -0.86778843402862549 0.32352942228317261</leafValues></_>
    <_>
      <internalNodes>
        0 -1 390157 -13122118 -542133410 -1593788967 -645147683
        2073292862 -30760824 -385597432 -2561</internalNodes>
      <leafValues>
        -0.77140945196151733 0.39371198415756226</leafValues></_>
    <_>
      <internalNodes>
        0 -1 594931 -401111569 1968243975 -787463740 -4030318 -385172866
        -7831397 2047475744 -465401530</internalNodes>
      <leafValues>
        -0.79979485273361206 0.4509926438331604</leafValues></_>
    <_>
      <internalNodes>
        0 -1 638729 1121445803 1431802327 286315775 1675481402
        1250496699 1763873165 -904931082 -169477386</internalNodes>
      <leafValues>
        -0.61402207612991333 0.6073756217956543</leafValues></_>
    <_>
      <internalNodes>
        0 -1 586484 -1789434445 490865047 -1593028433 -3506046
        -602830679 -342291956 -391205611 -564855980</internalNodes>
      <leafValues>
        -0.75024551153182983 0.50895017385482788</leafValues></_>
    <_>
      <internalNodes>
        0 -1 644205 1180153659 479286611 -1874728497 726672351 33099001
        816414915 -620659990 603835098</internalNodes>
      <leafValues>
        -0.75725030899047852 0.51548320055007935</leafValues></_>
    <_>
      <internalNodes>
        0 -1 453774 1247276558 2122613130 323600652 1900540290
        1879619883 2039677317 1099284630 -1349870650</internalNodes>
      <leafValues>
        -0.7645527720451355 0.53570097684860229</leafValues></_></weakClassifiers></stage1>
</opencv_storage>
