<?xml version="1.0"?>
<opencv_storage>
<stage3>
  <maxWeakCount>8</maxWeakCount>
  <stageThreshold>-0.62687110900878906</stageThreshold>
  <weakClassifiers>
    <_>
      <internalNodes>
        0 -1 172685 -580911105 -34399873 -1422125217 -308945535
        -670199873 -300538947 -306185797 -19765</internalNodes>
      <leafValues>
        -0.83764708042144775 0.23999999463558197</leafValues></_>
    <_>
      <internalNodes>
        0 -1 493761 -270598145 -271859329 -112599619 -19211911
        -745620228 -352640895 -360452188 -556467916</internalNodes>
      <leafValues>
        -0.78330498933792114 0.21568852663040161</leafValues></_>
    <_>
      <internalNodes>
        0 -1 16692 2094003199 870023423 -955807361 -33584965 1671572459
        -209485657 -1114914837 2130565743</internalNodes>
      <leafValues>
        -0.87362635135650635 0.29052561521530151</leafValues></_>
    <_>
      <internalNodes>
        0 -1 608196 -740854817 -42671635 -174231171 -419474451
        1584034685 -107118550 -30676683 -866854559</internalNodes>
      <leafValues>
        -0.83403784036636353 0.31893312931060791</leafValues></_>
    <_>
      <internalNodes>
        0 -1 253664 126856114 -1668431361 17312215 1602464590 1875886444
        735160682 2064144271 -1616667046</internalNodes>
      <leafValues>
        -0.71963834762573242 0.44509738683700562</leafValues></_>
    <_>
      <internalNodes>
        0 -1 504090 1695677193 -424026745 -738127523 -539456239
        1557893603 1498120685 -276493588 -747189542</internalNodes>
      <leafValues>
        -0.57493329048156738 0.55350947380065918</leafValues></_>
    <_>
      <internalNodes>
        0 -1 222069 -706959570 1641602171 1132537476 1572870111
        713107971 1514681034 -477933350 -1335823366</internalNodes>
      <leafValues>
        -0.71423333883285522 0.45383080840110779</leafValues></_>
    <_>
      <internalNodes>
        0 -1 607306 1506245593 -1526230621 -1052387105 980918943
        -205158132 -316514007 -793597064 -663463088</internalNodes>
      <leafValues>
        -0.82733309268951416 0.38466304540634155</leafValues></_></weakClassifiers></stage3>
</opencv_storage>
