<?xml version="1.0"?>
<opencv_storage>
<stage4>
  <maxWeakCount>10</maxWeakCount>
  <stageThreshold>-1.0918865203857422</stageThreshold>
  <weakClassifiers>
    <_>
      <internalNodes>
        0 -1 209060 -269222401 -244324897 -506499075 2037372125
        2125462525 -116431446 -86787105 -1075839061</internalNodes>
      <leafValues>
        -0.85450059175491333 -0.078651688992977142</leafValues></_>
    <_>
      <internalNodes>
        0 -1 35411 1306029380 1587920919 -1924069425 -816327351
        1807257315 -1082004996 -1202987013 -439830336</internalNodes>
      <leafValues>
        -0.76773005723953247 0.13868926465511322</leafValues></_>
    <_>
      <internalNodes>
        0 -1 336326 -354492369 1313466834 1661898074 1274884376
        865599454 1000313147 646818281 -1879150695</internalNodes>
      <leafValues>
        -0.73450535535812378 0.34056851267814636</leafValues></_>
    <_>
      <internalNodes>
        0 -1 74665 801226545 -284255466 -2145540937 -133240448
        1529326399 -1212742713 -34483209 624424311</internalNodes>
      <leafValues>
        -0.73780101537704468 0.36582234501838684</leafValues></_>
    <_>
      <internalNodes>
        0 -1 539167 167722042 2103301943 -854486310 -1882357267
        -490046035 -104185344 -366630177 986558154</internalNodes>
      <leafValues>
        -0.82175016403198242 0.35579627752304077</leafValues></_>
    <_>
      <internalNodes>
        0 -1 634281 -975333986 1309195253 486559135 1741997522
        -1490872394 666405289 -846575377 1741662595</internalNodes>
      <leafValues>
        -0.70813620090484619 0.42355638742446899</leafValues></_>
    <_>
      <internalNodes>
        0 -1 284661 -246812702 -1942765332 -1455322033 -8826636
        2040929279 -1282752285 -2002535877 1035042848</internalNodes>
      <leafValues>
        -0.63833445310592651 0.4890601634979248</leafValues></_>
    <_>
      <internalNodes>
        0 -1 61815 265174808 -1305566459 -922736062 522095514 579442645
        2042875913 722059009 846445170</internalNodes>
      <leafValues>
        -0.86652129888534546 0.35029047727584839</leafValues></_>
    <_>
      <internalNodes>
        0 -1 646276 -212098853 1804661635 -2146914141 -82459385
        -1173643125 864522891 1297860943 9689755</internalNodes>
      <leafValues>
        -0.60925453901290894 0.5216749906539917</leafValues></_>
    <_>
      <internalNodes>
        0 -1 705600 944757727 1364312325 -1027489697 455675923
        -2147174417 575178782 -657284241 2138958399</internalNodes>
      <leafValues>
        -0.8339497447013855 0.38761499524116516</leafValues></_></weakClassifiers></stage4>
</opencv_storage>
