<?xml version="1.0"?>
<opencv_storage>
<stage6>
  <maxWeakCount>10</maxWeakCount>
  <stageThreshold>-0.41092824935913086</stageThreshold>
  <weakClassifiers>
    <_>
      <internalNodes>
        0 -1 422 -198117385 -604413864 -1130800673 1033700437
        -1863267585 -356835078 -897004801 -805729269</internalNodes>
      <leafValues>
        -0.83700180053710938 0.058823529630899429</leafValues></_>
    <_>
      <internalNodes>
        0 -1 440072 -583084581 -573173585 -1593724705 -623062958
        -112488213 -90734103 -653592133 -51928460</internalNodes>
      <leafValues>
        -0.70079022645950317 0.22513730823993683</leafValues></_>
    <_>
      <internalNodes>
        0 -1 471804 -536355265 1474217168 1344254903 1467940029
        -1299977857 2007201791 -1558520104 825279570</internalNodes>
      <leafValues>
        -0.82694494724273682 0.26488503813743591</leafValues></_>
    <_>
      <internalNodes>
        0 -1 707302 936857535 -2049862793 -217775841 2103429519
        -70675186 1403723913 -99499397 261455213</internalNodes>
      <leafValues>
        -0.92825692892074585 0.2281935065984726</leafValues></_>
    <_>
      <internalNodes>
        0 -1 597504 -41677615 418640867 -1002330023 -343271463
        1930087515 -1442652789 -224236609 1402034564</internalNodes>
      <leafValues>
        -0.73398298025131226 0.3410288393497467</leafValues></_>
    <_>
      <internalNodes>
        0 -1 199988 -61951772 786112989 1207990680 -1593285867
        -477079374 2055962633 -627631839 -1972311056</internalNodes>
      <leafValues>
        -0.86014270782470703 0.28679406642913818</leafValues></_>
    <_>
      <internalNodes>
        0 -1 633633 785780490 1495186383 34164958 483295256 -1601089290
        218775899 -1646122013 1174154141</internalNodes>
      <leafValues>
        -0.85518443584442139 0.26871600747108459</leafValues></_>
    <_>
      <internalNodes>
        0 -1 368889 1497625681 -702346922 1094882012 -1237712749
        -1342133442 -1865771003 570993379 -185126208</internalNodes>
      <leafValues>
        -0.67073625326156616 0.39645832777023315</leafValues></_>
    <_>
      <internalNodes>
        0 -1 431420 -2087764400 614320326 -1769978152 -1825503856
        436272555 763402400 -511401520 482317242</internalNodes>
      <leafValues>
        -0.87126243114471436 0.30720260739326477</leafValues></_>
    <_>
      <internalNodes>
        0 -1 133272 1380298423 1901429082 50451500 1011803011 554957180
        2117911552 1084859336 1029875840</internalNodes>
      <leafValues>
        -0.64596110582351685 0.42306092381477356</leafValues></_></weakClassifiers></stage6>
</opencv_storage>
