<?xml version="1.0"?>
<opencv_storage>
<stage5>
  <maxWeakCount>9</maxWeakCount>
  <stageThreshold>-1.2014925479888916</stageThreshold>
  <weakClassifiers>
    <_>
      <internalNodes>
        0 -1 234171 22539223 -44574729 -149089921 -808713 -1714704418
        -1093140549 -72692743 -3297605</internalNodes>
      <leafValues>
        -0.83909416198730469 0.065573766827583313</leafValues></_>
    <_>
      <internalNodes>
        0 -1 17493 827936253 -2124984229 1895928799 525720021 1659074015
        -643166071 -611320083 1290062637</internalNodes>
      <leafValues>
        -0.88890194892883301 0.060553163290023804</leafValues></_>
    <_>
      <internalNodes>
        0 -1 707614 2119630783 2006945819 -116919881 1038582750
        1104968699 -416055038 1871702781 1609913023</internalNodes>
      <leafValues>
        -0.91883754730224609 0.21910360455513</leafValues></_>
    <_>
      <internalNodes>
        0 -1 70047 804683462 -111033671 1500907418 -1174826855
        1157010129 -1662774881 -643065140 -519966868</internalNodes>
      <leafValues>
        -0.78185081481933594 0.32961374521255493</leafValues></_>
    <_>
      <internalNodes>
        0 -1 29371 1498525615 -658316830 -117060706 -1718050405
        -897025127 -1714217415 -1097302849 -1155367721</internalNodes>
      <leafValues>
        -0.61770117282867432 0.45505529642105103</leafValues></_>
    <_>
      <internalNodes>
        0 -1 558898 1237943969 -1827694177 -1853549113 1536720972
        22661295 -171802486 -1583805515 71635139</internalNodes>
      <leafValues>
        -0.72597700357437134 0.39901536703109741</leafValues></_>
    <_>
      <internalNodes>
        0 -1 267930 -449336565 -1807384099 -331267585 -273838631
        1884335605 1494308871 -295920837 85959578</internalNodes>
      <leafValues>
        -0.64925956726074219 0.47386276721954346</leafValues></_>
    <_>
      <internalNodes>
        0 -1 43164 -410386636 -703892544 285268375 -673409881 675488243
        -1198910960 -762838470 1639025958</internalNodes>
      <leafValues>
        -0.71617734432220459 0.40462768077850342</leafValues></_>
    <_>
      <internalNodes>
        0 -1 580467 -523700482 -170589927 1091666113 -166293178
        -234156775 1809049736 428769520 -125394379</internalNodes>
      <leafValues>
        -0.63396996259689331 0.47183215618133545</leafValues></_></weakClassifiers></stage5>
</opencv_storage>
