<?xml version="1.0"?>
<opencv_storage>
<stage2>
  <maxWeakCount>8</maxWeakCount>
  <stageThreshold>-0.7660980224609375</stageThreshold>
  <weakClassifiers>
    <_>
      <internalNodes>
        0 -1 11963 2011037695 -147473617 -42484225 -67936361 2129492991
        -4247761 -131073 -4476930</internalNodes>
      <leafValues>
        -0.86691313982009888 0.03954802080988884</leafValues></_>
    <_>
      <internalNodes>
        0 -1 5333 -404817921 -33882313 -239198209 -3753002 -271581697
        -1099992461 -67131409 -195018889</internalNodes>
      <leafValues>
        -0.76462894678115845 0.27462282776832581</leafValues></_>
    <_>
      <internalNodes>
        0 -1 120389 -690030594 -143032835 -174150529 -71630977
        -1097011714 -330257 -203620753 142111098</internalNodes>
      <leafValues>
        -0.94251018762588501 0.29186269640922546</leafValues></_>
    <_>
      <internalNodes>
        0 -1 623489 -1132652047 2121792987 -161882795 -21497857
        -1084277017 -376628248 -84551297 1348786126</internalNodes>
      <leafValues>
        -0.81474447250366211 0.34758883714675903</leafValues></_>
    <_>
      <internalNodes>
        0 -1 423296 28728177 -1258690339 1912164261 1087005515
        -187358369 1056926824 -90449580 -1111771742</internalNodes>
      <leafValues>
        -0.71336603164672852 0.48971289396286011</leafValues></_>
    <_>
      <internalNodes>
        0 -1 562172 643299292 -1915569897 -711961747 -673203857
        -1156579906 -1230850868 -154485019 1121771495</internalNodes>
      <leafValues>
        -0.75656473636627197 0.47080835700035095</leafValues></_>
    <_>
      <internalNodes>
        0 -1 5246 -380190943 -455201 -1009228985 474983371 -253542358
        1972019243 -281337302 2053462907</internalNodes>
      <leafValues>
        -0.75149661302566528 0.47317221760749817</leafValues></_>
    <_>
      <internalNodes>
        0 -1 543383 1146976929 -545857858 -244588075 -1415578215
        321442510 -352584529 1497706920 -60142647</internalNodes>
      <leafValues>
        -0.7256661057472229 0.48896700143814087</leafValues></_></weakClassifiers></stage2>
</opencv_storage>
