<?xml version="1.0"?>
<opencv_storage>
<cascade>
  <stageType>BOOST</stageType>
  <featureType>LBP</featureType>
  <height>80</height>
  <width>80</width>
  <stageParams>
    <boostType>GAB</boostType>
    <minHitRate>0.99500000476837158</minHitRate>
    <maxFalseAlarm>0.10000000149011612</maxFalseAlarm>
    <weightTrimRate>0.94999999999999996</weightTrimRate>
    <maxDepth>1</maxDepth>
    <maxWeakCount>100</maxWeakCount></stageParams>
  <featureParams>
    <maxCatCount>256</maxCatCount>
    <featSize>1</featSize></featureParams>
  <stageNum>7</stageNum>
  <stages>
    <!-- stage 0 -->
    <_>
      <maxWeakCount>5</maxWeakCount>
      <stageThreshold>-1.4993742704391479</stageThreshold>
      <weakClassifiers>
        <_>
          <internalNodes>
            0 -1 13 -741608449 -686165861 1628131676 1542934811
            -796280385 -100040573 285403887 1002389483</internalNodes>
          <leafValues>
            -0.94466406106948853 0.12056737393140793</leafValues></_>
        <_>
          <internalNodes>
            0 -1 24 -179045412 -649543275 -1048538919 -5382069
            -376848196 1887600642 -99892577 426447791</internalNodes>
          <leafValues>
            -0.92118501663208008 0.24984683096408844</leafValues></_>
        <_>
          <internalNodes>
            0 -1 32 -242573827 138510608 -2147382383 -993918952
            -2113883442 1501626377 -896935775 -560136207</internalNodes>
          <leafValues>
            -0.81447309255599976 0.50608241558074951</leafValues></_>
        <_>
          <internalNodes>
            0 -1 26 -592469718 1193803931 1361166586 333681029
            1930021818 17866894 188969471 -1077938053</internalNodes>
          <leafValues>
            -0.77640354633331299 0.55669486522674561</leafValues></_>
        <_>
          <internalNodes>
            0 -1 0 -422128654 1930027417 -1853832818 -705326966
            1510204151 -1425833827 -527569233 -81270249</internalNodes>
          <leafValues>
            -0.70704430341720581 0.63679599761962891</leafValues></_></weakClassifiers></_>
    <!-- stage 1 -->
    <_>
      <maxWeakCount>7</maxWeakCount>
      <stageThreshold>-0.746601402759552</stageThreshold>
      <weakClassifiers>
        <_>
          <internalNodes>
            0 -1 15 -35653697 -752905659 1627476251 1431022111
            2053628923 -57694072 -293340193 -1049605</internalNodes>
          <leafValues>
            -0.85299348831176758 0.3451327383518219</leafValues></_>
        <_>
          <internalNodes>
            0 -1 37 -151257123 -1324228347 -351878911 -170616702
            -494616097 -251592693 -362041192 -827397507</internalNodes>
          <leafValues>
            -0.83379405736923218 0.36878544092178345</leafValues></_>
        <_>
          <internalNodes>
            0 -1 7 -67174914 -134520879 -1861055480 -8847909 -13055026
            -73774869 -809062289 187856235</internalNodes>
          <leafValues>
            -0.92694371938705444 0.3322908878326416</leafValues></_>
        <_>
          <internalNodes>
            0 -1 23 -380244946 1390118539 -721418280 1264054290
            1941145788 328464460 1519316365 -1054497</internalNodes>
          <leafValues>
            -0.7332577109336853 0.53142058849334717</leafValues></_>
        <_>
          <internalNodes>
            0 -1 25 -46738814 -41772578 73930 -1382121446 1259059352
            -343244307 -938405568 -597952417</internalNodes>
          <leafValues>
            -0.7809823751449585 0.5314406156539917</leafValues></_>
        <_>
          <internalNodes>
            0 -1 44 -803616931 -801033213 889264003 -603406189
            -1340028336 152080784 -930568143 -1132150192</internalNodes>
          <leafValues>
            -0.7686464786529541 0.50340127944946289</leafValues></_>
        <_>
          <internalNodes>
            0 -1 17 -69227168 59623362 1381318658 1157736099 1358956093
            1518856585 -125703990 666218414</internalNodes>
          <leafValues>
            -0.78197169303894043 0.50557202100753784</leafValues></_></weakClassifiers></_>
    <!-- stage 2 -->
    <_>
      <maxWeakCount>8</maxWeakCount>
      <stageThreshold>-0.99806231260299683</stageThreshold>
      <weakClassifiers>
        <_>
          <internalNodes>
            0 -1 10 1960300015 2079849775 -574195715 -1076016133
            2147036159 -38146241 -122171393 -1074058257</internalNodes>
          <leafValues>
            -0.89622640609741211 -0.22151899337768555</leafValues></_>
        <_>
          <internalNodes>
            0 -1 49 1711270823 2044165055 -786463905 597651871
            1276594111 1841235419 -4199942 -1258423298</internalNodes>
          <leafValues>
            -0.73353099822998047 0.283183753490448</leafValues></_>
        <_>
          <internalNodes>
            0 -1 33 -38345867 -439355170 -276590160 -19162722 -880469522
            -137642834 -38846483 -386875552</internalNodes>
          <leafValues>
            -0.85587567090988159 0.31807065010070801</leafValues></_>
        <_>
          <internalNodes>
            0 -1 34 1155477295 517864926 -1654302213 1006630398
            -627456043 1842886137 -287376417 715090687</internalNodes>
          <leafValues>
            -0.79556328058242798 0.37932434678077698</leafValues></_>
        <_>
          <internalNodes>
            0 -1 2 -103375104 1906301915 1644500955 -1745945617
            374820765 -92078049 1612838286 2003270003</internalNodes>
          <leafValues>
            -0.75220268964767456 0.43305492401123047</leafValues></_>
        <_>
          <internalNodes>
            0 -1 12 1470484390 -1108231690 -389689825 -1617290002
            1172275189 2132736377 1960298111 -1080886654</internalNodes>
          <leafValues>
            -0.72470510005950928 0.47765254974365234</leafValues></_>
        <_>
          <internalNodes>
            0 -1 16 -716730580 851794600 -996842550 1975691626
            2048229148 2058220129 -12059922 -1581450306</internalNodes>
          <leafValues>
            -0.75147897005081177 0.45627737045288086</leafValues></_>
        <_>
          <internalNodes>
            0 -1 30 1347896753 2145235425 439377861 -1125351335
            1270886520 -83327697 913925313 -1116304949</internalNodes>
          <leafValues>
            -0.74146294593811035 0.45837002992630005</leafValues></_></weakClassifiers></_>
    <!-- stage 3 -->
    <_>
      <maxWeakCount>8</maxWeakCount>
      <stageThreshold>-1.2026433944702148</stageThreshold>
      <weakClassifiers>
        <_>
          <internalNodes>
            0 -1 27 -1214521461 -79953989 -2047894083 -614497537
            -5251617 -202245462 2011930108 -337650291</internalNodes>
          <leafValues>
            -0.88709676265716553 -0.25641027092933655</leafValues></_>
        <_>
          <internalNodes>
            0 -1 42 -1751925905 -103356967 -380513908 -757166649
            -1148489367 -108285447 -473874992 -163254412</internalNodes>
          <leafValues>
            -0.82155877351760864 0.14356893301010132</leafValues></_>
        <_>
          <internalNodes>
            0 -1 31 -1076428865 332850071 -1052685877 -1127030519
            -486495361 -192245630 -74728568 -922955855</internalNodes>
          <leafValues>
            -0.82413160800933838 0.29468801617622375</leafValues></_>
        <_>
          <internalNodes>
            0 -1 40 234854397 676849052 -653804219 1299088603 -983572484
            1054401709 2050399724 535804660</internalNodes>
          <leafValues>
            -0.79335153102874756 0.35480278730392456</leafValues></_>
        <_>
          <internalNodes>
            0 -1 43 1188278449 -1227435199 -712405161 1889114575
            613123610 -542377583 862648923 1346499333</internalNodes>
          <leafValues>
            -0.8085097074508667 0.39632877707481384</leafValues></_>
        <_>
          <internalNodes>
            0 -1 1 -262940677 108304690 1497715858 -66562054 -45504011
            2104992075 -696056786 1402304599</internalNodes>
          <leafValues>
            -0.74990791082382202 0.39151167869567871</leafValues></_>
        <_>
          <internalNodes>
            0 -1 28 -302717183 2004063578 -255605555 681902171 860990750
            1939277487 -360584641 2061281727</internalNodes>
          <leafValues>
            -0.68851131200790405 0.47323089838027954</leafValues></_>
        <_>
          <internalNodes>
            0 -1 36 -17843747 -927151914 -989854881 -770272893
            -1165319023 -695697237 1804120240 -420154384</internalNodes>
          <leafValues>
            -0.7198023796081543 0.44919347763061523</leafValues></_></weakClassifiers></_>
    <!-- stage 4 -->
    <_>
      <maxWeakCount>7</maxWeakCount>
      <stageThreshold>-0.91054975986480713</stageThreshold>
      <weakClassifiers>
        <_>
          <internalNodes>
            0 -1 11 1373624063 -549743847 2043123647 -539652957
            -561145601 -80034373 -393091605 -272693</internalNodes>
          <leafValues>
            -0.83587336540222168 0.27659574151039124</leafValues></_>
        <_>
          <internalNodes>
            0 -1 35 -997347561 -719552595 -947644617 -807629537
            1675328443 -1145372661 1712117980 -567629205</internalNodes>
          <leafValues>
            -0.7272302508354187 0.25825202465057373</leafValues></_>
        <_>
          <internalNodes>
            0 -1 4 -1820755497 1536805181 -75430851 1734204087
            1609785278 1772801714 2141745018 -1287433293</internalNodes>
          <leafValues>
            -0.64695990085601807 0.46157169342041016</leafValues></_>
        <_>
          <internalNodes>
            0 -1 5 938737599 -1408183457 -988756837 -812134221
            -771499843 1268371587 -91245169 1977739775</internalNodes>
          <leafValues>
            -0.85941416025161743 0.36152923107147217</leafValues></_>
        <_>
          <internalNodes>
            0 -1 21 -1881671702 -1357124333 -1903160858 -207317187
            1938913970 -119896082 1226232798 -161431184</internalNodes>
          <leafValues>
            -0.859657883644104 0.36304116249084473</leafValues></_>
        <_>
          <internalNodes>
            0 -1 14 1960301668 -1022766989 -1006491011 59289885
            -1971238410 1406206867 -361813231 184017258</internalNodes>
          <leafValues>
            -0.75293231010437012 0.37266910076141357</leafValues></_>
        <_>
          <internalNodes>
            0 -1 39 -2061506367 -1894514364 -1673444141 2068300735
            -1265393414 -115752565 715850163 -2095983757</internalNodes>
          <leafValues>
            -0.66521668434143066 0.45656085014343262</leafValues></_></weakClassifiers></_>
    <!-- stage 5 -->
    <_>
      <maxWeakCount>8</maxWeakCount>
      <stageThreshold>-1.0449744462966919</stageThreshold>
      <weakClassifiers>
        <_>
          <internalNodes>
            0 -1 19 43767679 882723967 1170179487 1300487598 -745840161
            -561361789 -318907153 -15617</internalNodes>
          <leafValues>
            -0.84569019079208374 0.021276595070958138</leafValues></_>
        <_>
          <internalNodes>
            0 -1 45 -170561569 1433420118 1091649876 -553656017
            -41288871 -74972017 -76813455 -256059308</internalNodes>
          <leafValues>
            -0.83652490377426147 0.10028097033500671</leafValues></_>
        <_>
          <internalNodes>
            0 -1 50 190810962 893605823 -209204993 779663199 1477409335
            681623743 -1363018115 880146206</internalNodes>
          <leafValues>
            -0.81274306774139404 0.2653578519821167</leafValues></_>
        <_>
          <internalNodes>
            0 -1 3 -647385425 -155265169 -2078872609 -1697504866
            2022276089 2051545903 969047039 -1284351811</internalNodes>
          <leafValues>
            -0.70538169145584106 0.36157062649726868</leafValues></_>
        <_>
          <internalNodes>
            0 -1 41 1775214098 333320555 -687563001 -1577138035
            -1175490597 -209139572 -74489907 808844314</internalNodes>
          <leafValues>
            -0.7361568808555603 0.38809725642204285</leafValues></_>
        <_>
          <internalNodes>
            0 -1 29 -1686153752 2090527046 -1719563883 566477716
            867894654 2000077246 -1925133338 -845100779</internalNodes>
          <leafValues>
            -0.7779201865196228 0.4007505476474762</leafValues></_>
        <_>
          <internalNodes>
            0 -1 46 -1016926427 1725944075 -587180663 634319684
            -392534992 1095276723 -79125807 1139119131</internalNodes>
          <leafValues>
            -0.72757565975189209 0.40386584401130676</leafValues></_>
        <_>
          <internalNodes>
            0 -1 9 976430885 -1089693862 -2146136883 -1092140604
            1912669099 -72120422 -834550651 77532141</internalNodes>
          <leafValues>
            -0.67606192827224731 0.4454173743724823</leafValues></_></weakClassifiers></_>
    <!-- stage 6 -->
    <_>
      <maxWeakCount>8</maxWeakCount>
      <stageThreshold>-0.72273421287536621</stageThreshold>
      <weakClassifiers>
        <_>
          <internalNodes>
            0 -1 6 -783032833 2144715033 -1862183585 -1113765831
            327321327 -89618278 -1823874305 -810444149</internalNodes>
          <leafValues>
            -0.84238803386688232 0.087999999523162842</leafValues></_>
        <_>
          <internalNodes>
            0 -1 8 -1176560946 -35584067 -586529826 -1133341222
            1436856815 -36992850 -318829924 -247357828</internalNodes>
          <leafValues>
            -0.82455688714981079 0.11634823679924011</leafValues></_>
        <_>
          <internalNodes>
            0 -1 18 720545548 177518293 -2130585645 -37453113 1875895084
            -1261911921 1780280303 -1957697736</internalNodes>
          <leafValues>
            -0.7711518406867981 0.29731249809265137</leafValues></_>
        <_>
          <internalNodes>
            0 -1 22 -288372585 680284414 1166392731 -2020173374
            1626767839 1410039962 2046975304 535260074</internalNodes>
          <leafValues>
            -0.6641232967376709 0.43441131711006165</leafValues></_>
        <_>
          <internalNodes>
            0 -1 47 1395992465 1678043621 -1023410045 -1624657385
            -912481720 1739719297 805347629 1893296736</internalNodes>
          <leafValues>
            -0.73751407861709595 0.4147753119468689</leafValues></_>
        <_>
          <internalNodes>
            0 -1 38 1535266593 2059509935 -1962866299 -483817981
            -1279248197 -510680853 -1979172181 -1936789275</internalNodes>
          <leafValues>
            -0.62415575981140137 0.52330577373504639</leafValues></_>
        <_>
          <internalNodes>
            0 -1 48 1222548803 -279423334 1368428672 1006944793
            1628619148 1636311528 134367503 773237529</internalNodes>
          <leafValues>
            -0.80107742547988892 0.40053784847259521</leafValues></_>
        <_>
          <internalNodes>
            0 -1 20 210143524 -537083841 -2122253977 -586001019
            349365678 -2052374382 1344519359 1714142058</internalNodes>
          <leafValues>
            -0.72291451692581177 0.45018631219863892</leafValues></_></weakClassifiers></_></stages>
  <features>
    <_>
      <rect>
        0 0 15 17</rect></_>
    <_>
      <rect>
        0 9 11 9</rect></_>
    <_>
      <rect>
        0 12 8 19</rect></_>
    <_>
      <rect>
        0 34 18 10</rect></_>
    <_>
      <rect>
        0 50 17 10</rect></_>
    <_>
      <rect>
        0 62 1 2</rect></_>
    <_>
      <rect>
        1 1 19 4</rect></_>
    <_>
      <rect>
        2 1 24 23</rect></_>
    <_>
      <rect>
        2 5 15 15</rect></_>
    <_>
      <rect>
        7 14 7 9</rect></_>
    <_>
      <rect>
        7 39 19 11</rect></_>
    <_>
      <rect>
        8 17 21 10</rect></_>
    <_>
      <rect>
        8 49 15 9</rect></_>
    <_>
      <rect>
        10 15 23 21</rect></_>
    <_>
      <rect>
        11 6 11 7</rect></_>
    <_>
      <rect>
        11 44 11 11</rect></_>
    <_>
      <rect>
        12 37 9 11</rect></_>
    <_>
      <rect>
        15 40 7 12</rect></_>
    <_>
      <rect>
        15 44 11 11</rect></_>
    <_>
      <rect>
        17 15 15 14</rect></_>
    <_>
      <rect>
        17 39 10 10</rect></_>
    <_>
      <rect>
        20 17 9 8</rect></_>
    <_>
      <rect>
        20 62 7 6</rect></_>
    <_>
      <rect>
        21 58 11 7</rect></_>
    <_>
      <rect>
        23 0 19 24</rect></_>
    <_>
      <rect>
        23 15 14 7</rect></_>
    <_>
      <rect>
        28 52 17 9</rect></_>
    <_>
      <rect>
        30 10 15 10</rect></_>
    <_>
      <rect>
        31 61 13 6</rect></_>
    <_>
      <rect>
        32 10 7 5</rect></_>
    <_>
      <rect>
        32 11 13 7</rect></_>
    <_>
      <rect>
        33 31 1 2</rect></_>
    <_>
      <rect>
        33 39 1 1</rect></_>
    <_>
      <rect>
        34 32 4 4</rect></_>
    <_>
      <rect>
        34 42 15 10</rect></_>
    <_>
      <rect>
        34 46 5 5</rect></_>
    <_>
      <rect>
        35 44 1 1</rect></_>
    <_>
      <rect>
        37 38 1 3</rect></_>
    <_>
      <rect>
        41 6 13 12</rect></_>
    <_>
      <rect>
        42 0 10 7</rect></_>
    <_>
      <rect>
        46 23 11 17</rect></_>
    <_>
      <rect>
        47 0 11 7</rect></_>
    <_>
      <rect>
        49 45 1 1</rect></_>
    <_>
      <rect>
        50 6 9 9</rect></_>
    <_>
      <rect>
        51 35 1 1</rect></_>
    <_>
      <rect>
        52 36 1 1</rect></_>
    <_>
      <rect>
        52 54 6 5</rect></_>
    <_>
      <rect>
        53 13 8 17</rect></_>
    <_>
      <rect>
        54 49 6 6</rect></_>
    <_>
      <rect>
        55 38 8 6</rect></_>
    <_>
      <rect>
        59 19 7 5</rect></_></features></cascade>
</opencv_storage>
