<?xml version="1.0"?>
<opencv_storage>
<stage4>
  <maxWeakCount>7</maxWeakCount>
  <stageThreshold>-0.91054975986480713</stageThreshold>
  <weakClassifiers>
    <_>
      <internalNodes>
        0 -1 221730 1373624063 -549743847 2043123647 -539652957
        -561145601 -80034373 -393091605 -272693</internalNodes>
      <leafValues>
        -0.83587336540222168 0.27659574151039124</leafValues></_>
    <_>
      <internalNodes>
        0 -1 758562 -997347561 -719552595 -947644617 -807629537
        1675328443 -1145372661 1712117980 -567629205</internalNodes>
      <leafValues>
        -0.7272302508354187 0.25825202465057373</leafValues></_>
    <_>
      <internalNodes>
        0 -1 23777 -1820755497 1536805181 -75430851 1734204087
        1609785278 1772801714 2141745018 -1287433293</internalNodes>
      <leafValues>
        -0.64695990085601807 0.46157169342041016</leafValues></_>
    <_>
      <internalNodes>
        0 -1 26053 938737599 -1408183457 -988756837 -812134221
        -771499843 1268371587 -91245169 1977739775</internalNodes>
      <leafValues>
        -0.85941416025161743 0.36152923107147217</leafValues></_>
    <_>
      <internalNodes>
        0 -1 495754 -1881671702 -1357124333 -1903160858 -207317187
        1938913970 -119896082 1226232798 -161431184</internalNodes>
      <leafValues>
        -0.859657883644104 0.36304116249084473</leafValues></_>
    <_>
      <internalNodes>
        0 -1 289128 1960301668 -1022766989 -1006491011 59289885
        -1971238410 1406206867 -361813231 184017258</internalNodes>
      <leafValues>
        -0.75293231010437012 0.37266910076141357</leafValues></_>
    <_>
      <internalNodes>
        0 -1 862647 -2061506367 -1894514364 -1673444141 2068300735
        -1265393414 -115752565 715850163 -2095983757</internalNodes>
      <leafValues>
        -0.66521668434143066 0.45656085014343262</leafValues></_></weakClassifiers></stage4>
</opencv_storage>
