<?xml version="1.0"?>
<opencv_storage>
<stage2>
  <maxWeakCount>8</maxWeakCount>
  <stageThreshold>-0.99806231260299683</stageThreshold>
  <weakClassifiers>
    <_>
      <internalNodes>
        0 -1 205345 1960300015 2079849775 -574195715 -1076016133
        2147036159 -38146241 -122171393 -1074058257</internalNodes>
      <leafValues>
        -0.89622640609741211 -0.22151899337768555</leafValues></_>
    <_>
      <internalNodes>
        0 -1 1009740 1711270823 2044165055 -786463905 597651871
        1276594111 1841235419 -4199942 -1258423298</internalNodes>
      <leafValues>
        -0.73353099822998047 0.283183753490448</leafValues></_>
    <_>
      <internalNodes>
        0 -1 755730 -38345867 -439355170 -276590160 -19162722 -880469522
        -137642834 -38846483 -386875552</internalNodes>
      <leafValues>
        -0.85587567090988159 0.31807065010070801</leafValues></_>
    <_>
      <internalNodes>
        0 -1 757986 1155477295 517864926 -1654302213 1006630398
        -627456043 1842886137 -287376417 715090687</internalNodes>
      <leafValues>
        -0.79556328058242798 0.37932434678077698</leafValues></_>
    <_>
      <internalNodes>
        0 -1 7816 -103375104 1906301915 1644500955 -1745945617 374820765
        -92078049 1612838286 2003270003</internalNodes>
      <leafValues>
        -0.75220268964767456 0.43305492401123047</leafValues></_>
    <_>
      <internalNodes>
        0 -1 233353 1470484390 -1108231690 -389689825 -1617290002
        1172275189 2132736377 1960298111 -1080886654</internalNodes>
      <leafValues>
        -0.72470510005950928 0.47765254974365234</leafValues></_>
    <_>
      <internalNodes>
        0 -1 326248 -716730580 851794600 -996842550 1975691626
        2048229148 2058220129 -12059922 -1581450306</internalNodes>
      <leafValues>
        -0.75147897005081177 0.45627737045288086</leafValues></_>
    <_>
      <internalNodes>
        0 -1 717499 1347896753 2145235425 439377861 -1125351335
        1270886520 -83327697 913925313 -1116304949</internalNodes>
      <leafValues>
        -0.74146294593811035 0.45837002992630005</leafValues></_></weakClassifiers></stage2>
</opencv_storage>
