<?xml version="1.0"?>
<opencv_storage>
<stage5>
  <maxWeakCount>8</maxWeakCount>
  <stageThreshold>-1.0449744462966919</stageThreshold>
  <weakClassifiers>
    <_>
      <internalNodes>
        0 -1 431173 43767679 882723967 1170179487 1300487598 -745840161
        -561361789 -318907153 -15617</internalNodes>
      <leafValues>
        -0.84569019079208374 0.021276595070958138</leafValues></_>
    <_>
      <internalNodes>
        0 -1 982773 -170561569 1433420118 1091649876 -553656017
        -41288871 -74972017 -76813455 -256059308</internalNodes>
      <leafValues>
        -0.83652490377426147 0.10028097033500671</leafValues></_>
    <_>
      <internalNodes>
        0 -1 1038324 190810962 893605823 -209204993 779663199 1477409335
        681623743 -1363018115 880146206</internalNodes>
      <leafValues>
        -0.81274306774139404 0.2653578519821167</leafValues></_>
    <_>
      <internalNodes>
        0 -1 18672 -647385425 -155265169 -2078872609 -1697504866
        2022276089 2051545903 969047039 -1284351811</internalNodes>
      <leafValues>
        -0.70538169145584106 0.36157062649726868</leafValues></_>
    <_>
      <internalNodes>
        0 -1 923747 1775214098 333320555 -687563001 -1577138035
        -1175490597 -209139572 -74489907 808844314</internalNodes>
      <leafValues>
        -0.7361568808555603 0.38809725642204285</leafValues></_>
    <_>
      <internalNodes>
        0 -1 716991 -1686153752 2090527046 -1719563883 566477716
        867894654 2000077246 -1925133338 -845100779</internalNodes>
      <leafValues>
        -0.7779201865196228 0.4007505476474762</leafValues></_>
    <_>
      <internalNodes>
        0 -1 984680 -1016926427 1725944075 -587180663 634319684
        -392534992 1095276723 -79125807 1139119131</internalNodes>
      <leafValues>
        -0.72757565975189209 0.40386584401130676</leafValues></_>
    <_>
      <internalNodes>
        0 -1 194633 976430885 -1089693862 -2146136883 -1092140604
        1912669099 -72120422 -834550651 77532141</internalNodes>
      <leafValues>
        -0.67606192827224731 0.4454173743724823</leafValues></_></weakClassifiers></stage5>
</opencv_storage>
