<?xml version="1.0"?>
<opencv_storage>
<stage3>
  <maxWeakCount>8</maxWeakCount>
  <stageThreshold>-1.2026433944702148</stageThreshold>
  <weakClassifiers>
    <_>
      <internalNodes>
        0 -1 683484 -1214521461 -79953989 -2047894083 -614497537
        -5251617 -202245462 2011930108 -337650291</internalNodes>
      <leafValues>
        -0.88709676265716553 -0.25641027092933655</leafValues></_>
    <_>
      <internalNodes>
        0 -1 954144 -1751925905 -103356967 -380513908 -757166649
        -1148489367 -108285447 -473874992 -163254412</internalNodes>
      <leafValues>
        -0.82155877351760864 0.14356893301010132</leafValues></_>
    <_>
      <internalNodes>
        0 -1 739645 -1076428865 332850071 -1052685877 -1127030519
        -486495361 -192245630 -74728568 -922955855</internalNodes>
      <leafValues>
        -0.82413160800933838 0.29468801617622375</leafValues></_>
    <_>
      <internalNodes>
        0 -1 917835 234854397 676849052 -653804219 1299088603 -983572484
        1054401709 2050399724 535804660</internalNodes>
      <leafValues>
        -0.79335153102874756 0.35480278730392456</leafValues></_>
    <_>
      <internalNodes>
        0 -1 957854 1188278449 -1227435199 -712405161 1889114575
        613123610 -542377583 862648923 1346499333</internalNodes>
      <leafValues>
        -0.8085097074508667 0.39632877707481384</leafValues></_>
    <_>
      <internalNodes>
        0 -1 6088 -262940677 108304690 1497715858 -66562054 -45504011
        2104992075 -696056786 1402304599</internalNodes>
      <leafValues>
        -0.74990791082382202 0.39151167869567871</leafValues></_>
    <_>
      <internalNodes>
        0 -1 712046 -302717183 2004063578 -255605555 681902171 860990750
        1939277487 -360584641 2061281727</internalNodes>
      <leafValues>
        -0.68851131200790405 0.47323089838027954</leafValues></_>
    <_>
      <internalNodes>
        0 -1 773964 -17843747 -927151914 -989854881 -770272893
        -1165319023 -695697237 1804120240 -420154384</internalNodes>
      <leafValues>
        -0.7198023796081543 0.44919347763061523</leafValues></_></weakClassifiers></stage3>
</opencv_storage>
