<?xml version="1.0"?>
<opencv_storage>
<stage6>
  <maxWeakCount>8</maxWeakCount>
  <stageThreshold>-0.72273421287536621</stageThreshold>
  <weakClassifiers>
    <_>
      <internalNodes>
        0 -1 28525 -783032833 2144715033 -1862183585 -1113765831
        327321327 -89618278 -1823874305 -810444149</internalNodes>
      <leafValues>
        -0.84238803386688232 0.087999999523162842</leafValues></_>
    <_>
      <internalNodes>
        0 -1 58448 -1176560946 -35584067 -586529826 -1133341222
        1436856815 -36992850 -318829924 -247357828</internalNodes>
      <leafValues>
        -0.82455688714981079 0.11634823679924011</leafValues></_>
    <_>
      <internalNodes>
        0 -1 396913 720545548 177518293 -2130585645 -37453113 1875895084
        -1261911921 1780280303 -1957697736</internalNodes>
      <leafValues>
        -0.7711518406867981 0.29731249809265137</leafValues></_>
    <_>
      <internalNodes>
        0 -1 507620 -288372585 680284414 1166392731 -2020173374
        1626767839 1410039962 2046975304 535260074</internalNodes>
      <leafValues>
        -0.6641232967376709 0.43441131711006165</leafValues></_>
    <_>
      <internalNodes>
        0 -1 988622 1395992465 1678043621 -1023410045 -1624657385
        -912481720 1739719297 805347629 1893296736</internalNodes>
      <leafValues>
        -0.73751407861709595 0.4147753119468689</leafValues></_>
    <_>
      <internalNodes>
        0 -1 851006 1535266593 2059509935 -1962866299 -483817981
        -1279248197 -510680853 -1979172181 -1936789275</internalNodes>
      <leafValues>
        -0.62415575981140137 0.52330577373504639</leafValues></_>
    <_>
      <internalNodes>
        0 -1 1002324 1222548803 -279423334 1368428672 1006944793
        1628619148 1636311528 134367503 773237529</internalNodes>
      <leafValues>
        -0.80107742547988892 0.40053784847259521</leafValues></_>
    <_>
      <internalNodes>
        0 -1 439812 210143524 -537083841 -2122253977 -586001019
        349365678 -2052374382 1344519359 1714142058</internalNodes>
      <leafValues>
        -0.72291451692581177 0.45018631219863892</leafValues></_></weakClassifiers></stage6>
</opencv_storage>
