<?xml version="1.0"?>
<opencv_storage>
<stage1>
  <maxWeakCount>7</maxWeakCount>
  <stageThreshold>-0.746601402759552</stageThreshold>
  <weakClassifiers>
    <_>
      <internalNodes>
        0 -1 304882 -35653697 -752905659 1627476251 1431022111
        2053628923 -57694072 -293340193 -1049605</internalNodes>
      <leafValues>
        -0.85299348831176758 0.3451327383518219</leafValues></_>
    <_>
      <internalNodes>
        0 -1 802582 -151257123 -1324228347 -351878911 -170616702
        -494616097 -251592693 -362041192 -827397507</internalNodes>
      <leafValues>
        -0.83379405736923218 0.36878544092178345</leafValues></_>
    <_>
      <internalNodes>
        0 -1 56052 -67174914 -134520879 -1861055480 -8847909 -13055026
        -73774869 -809062289 187856235</internalNodes>
      <leafValues>
        -0.92694371938705444 0.3322908878326416</leafValues></_>
    <_>
      <internalNodes>
        0 -1 527219 -380244946 1390118539 -721418280 1264054290
        1941145788 328464460 1519316365 -1054497</internalNodes>
      <leafValues>
        -0.7332577109336853 0.53142058849334717</leafValues></_>
    <_>
      <internalNodes>
        0 -1 555732 -46738814 -41772578 73930 -1382121446 1259059352
        -343244307 -938405568 -597952417</internalNodes>
      <leafValues>
        -0.7809823751449585 0.5314406156539917</leafValues></_>
    <_>
      <internalNodes>
        0 -1 973161 -803616931 -801033213 889264003 -603406189
        -1340028336 152080784 -930568143 -1132150192</internalNodes>
      <leafValues>
        -0.7686464786529541 0.50340127944946289</leafValues></_>
    <_>
      <internalNodes>
        0 -1 395822 -69227168 59623362 1381318658 1157736099 1358956093
        1518856585 -125703990 666218414</internalNodes>
      <leafValues>
        -0.78197169303894043 0.50557202100753784</leafValues></_></weakClassifiers></stage1>
</opencv_storage>
