<?xml version="1.0"?>
<opencv_storage>
<stage3>
  <maxWeakCount>6</maxWeakCount>
  <stageThreshold>-1.4135047197341919</stageThreshold>
  <weakClassifiers>
    <_>
      <internalNodes>
        0 -1 18266 -137666561 -1623337 -1023045041 -8481022 -525087733
        -929312293 -339411026 2133536431</internalNodes>
      <leafValues>
        -0.87177032232284546 -0.25070422887802124</leafValues></_>
    <_>
      <internalNodes>
        0 -1 631385 -285989961 -1156216994 -1056855333 2002606182
        -888503641 -1166000117 -1844774125 -339736480</internalNodes>
      <leafValues>
        -0.80835878849029541 0.13559733331203461</leafValues></_>
    <_>
      <internalNodes>
        0 -1 164777 -1479561929 -1369594794 -1055848250 196956647
        1896942409 960079925 327938940 -1128127761</internalNodes>
      <leafValues>
        -0.76668602228164673 0.32431051135063171</leafValues></_>
    <_>
      <internalNodes>
        0 -1 520686 -1525316306 -1135869590 286363925 -692518764
        -1992249219 1561527490 -1685266210 1881018961</internalNodes>
      <leafValues>
        -0.75531882047653198 0.3403475284576416</leafValues></_>
    <_>
      <internalNodes>
        0 -1 59474 1402220899 -132204674 -1926887220 -946840794
        539838755 -243105468 -1013210313 578568630</internalNodes>
      <leafValues>
        -0.83896291255950928 0.30407389998435974</leafValues></_>
    <_>
      <internalNodes>
        0 -1 96119 1258660407 -741170595 1275068862 -1996337063
        1887442571 1758822441 -897460305 -355507218</internalNodes>
      <leafValues>
        -0.55506712198257446 0.54081004858016968</leafValues></_></weakClassifiers></stage3>
</opencv_storage>
