<?xml version="1.0"?>
<opencv_storage>
<stage9>
  <maxWeakCount>7</maxWeakCount>
  <stageThreshold>-1.4836462736129761</stageThreshold>
  <weakClassifiers>
    <_>
      <internalNodes>
        0 -1 387264 -113180673 -875441991 420177365 1972584815
        -1459321349 -99022697 -363029345 -340813237</internalNodes>
      <leafValues>
        -0.79588609933853149 0.044117648154497147</leafValues></_>
    <_>
      <internalNodes>
        0 -1 223113 -838356421 -697335336 -183657266 557633815
        -510950489 -1803392856 2050835289 1895670755</internalNodes>
      <leafValues>
        -0.70346194505691528 0.18144196271896362</leafValues></_>
    <_>
      <internalNodes>
        0 -1 679563 651669005 1265398601 1132968321 568779213 1804718559
        1648541838 -502826532 1188820142</internalNodes>
      <leafValues>
        -0.64767748117446899 0.3466002345085144</leafValues></_>
    <_>
      <internalNodes>
        0 -1 655053 -271667073 -436522723 1073762963 -140574579
        679624989 1221067912 -342750829 -216206351</internalNodes>
      <leafValues>
        -0.55452412366867065 0.4668211042881012</leafValues></_>
    <_>
      <internalNodes>
        0 -1 225518 1797139564 1812792565 -1992277665 1838661641
        1368354984 845152259 -984942152 -1413547483</internalNodes>
      <leafValues>
        -0.68471157550811768 0.42765957117080688</leafValues></_>
    <_>
      <internalNodes>
        0 -1 556539 -1193830637 358162814 -1862233411 -858463905
        1896541402 1338906769 -930313220 -1411931295</internalNodes>
      <leafValues>
        -0.56295967102050781 0.51101839542388916</leafValues></_>
    <_>
      <internalNodes>
        0 -1 310458 -1919699061 1612587146 1124160286 -1799310708
        -259629017 -1840250880 2047346769 1058196454</internalNodes>
      <leafValues>
        -0.82791459560394287 0.33185815811157227</leafValues></_></weakClassifiers></stage9>
</opencv_storage>
