<?xml version="1.0"?>
<opencv_storage>
<stage4>
  <maxWeakCount>6</maxWeakCount>
  <stageThreshold>-1.3187069892883301</stageThreshold>
  <weakClassifiers>
    <_>
      <internalNodes>
        0 -1 607446 -174590979 1938907864 -1744813731 -149306932
        -225212195 -233799538 -627846981 -25908639</internalNodes>
      <leafValues>
        -0.87814313173294067 -0.25136610865592957</leafValues></_>
    <_>
      <internalNodes>
        0 -1 372196 -1013134081 2019152048 -1828618017 -1675584828
        -662318709 -105152369 -326375277 -1359731520</internalNodes>
      <leafValues>
        -0.72124296426773071 0.2558225691318512</leafValues></_>
    <_>
      <internalNodes>
        0 -1 187029 -1560480769 -1010831333 352818303 -1931558596
        -1164238597 -360085341 -1893057693 -1471387432</internalNodes>
      <leafValues>
        -0.79270398616790771 0.31753215193748474</leafValues></_>
    <_>
      <internalNodes>
        0 -1 497030 1593441705 2077163679 -1164316065 -606371497
        -1760655216 -1115717189 -2093571515 -32095247</internalNodes>
      <leafValues>
        -0.67971962690353394 0.39505353569984436</leafValues></_>
    <_>
      <internalNodes>
        0 -1 501144 554812111 -1047330363 17113368 -1241235053
        -1742720661 -74940023 -1323681240 -1396380800</internalNodes>
      <leafValues>
        -0.80006861686706543 0.40951055288314819</leafValues></_>
    <_>
      <internalNodes>
        0 -1 650201 115327522 1120207134 -267259721 -1815117245
        152119327 444761227 -656329082 1114329900</internalNodes>
      <leafValues>
        -0.82995152473449707 0.36652654409408569</leafValues></_></weakClassifiers></stage4>
</opencv_storage>
