<?xml version="1.0"?>
<opencv_storage>
<stage7>
  <maxWeakCount>8</maxWeakCount>
  <stageThreshold>-1.2407988309860229</stageThreshold>
  <weakClassifiers>
    <_>
      <internalNodes>
        0 -1 356827 -109193953 -853952203 1392597279 -10638253
        -410395969 -541093677 -888428549 -67122517</internalNodes>
      <leafValues>
        -0.77526396512985229 0.37837839126586914</leafValues></_>
    <_>
      <internalNodes>
        0 -1 615446 -1568585857 1694711947 -738107111 -649346796
        -1501331357 970074123 -351898751 -1367324396</internalNodes>
      <leafValues>
        -0.725105881690979 0.199247807264328</leafValues></_>
    <_>
      <internalNodes>
        0 -1 461710 1964094631 -607088231 353579166 -172318567
        -1438858401 -1939434733 -1282557813 1624563554</internalNodes>
      <leafValues>
        -0.71714317798614502 0.31612566113471985</leafValues></_>
    <_>
      <internalNodes>
        0 -1 382264 -1068328146 -3469282 496049894 1538933653
        -2004165514 -40369938 -1056847268 -521811053</internalNodes>
      <leafValues>
        -0.6230584979057312 0.39911681413650513</leafValues></_>
    <_>
      <internalNodes>
        0 -1 702838 -984240261 587551967 553719455 102189317 -1744604358
        -314507132 763547691 386490908</internalNodes>
      <leafValues>
        -0.72917056083679199 0.37875974178314209</leafValues></_>
    <_>
      <internalNodes>
        0 -1 408194 649895803 1562674897 121675794 -548941816 164830648
        -395804648 -754652529 -1367023478</internalNodes>
      <leafValues>
        -0.62142699956893921 0.48159357905387878</leafValues></_>
    <_>
      <internalNodes>
        0 -1 196577 -25231493 -605306882 -81932 1744793598 -1207976067
        1736441727 2130702205 804913015</internalNodes>
      <leafValues>
        -0.54237979650497437 0.57479822635650635</leafValues></_>
    <_>
      <internalNodes>
        0 -1 644356 -1558760667 -24952769 -1005764157 1967544991
        419511173 -1147662160 1241623066 -815490436</internalNodes>
      <leafValues>
        -0.59006839990615845 0.50983202457427979</leafValues></_></weakClassifiers></stage7>
</opencv_storage>
