<?xml version="1.0"?>
<opencv_storage>
<stage5>
  <maxWeakCount>7</maxWeakCount>
  <stageThreshold>-0.96826624870300293</stageThreshold>
  <weakClassifiers>
    <_>
      <internalNodes>
        0 -1 486649 -749408257 -35814699 1904804817 -537329159
        -1738307335 -1143182312 -1203074917 -79700701</internalNodes>
      <leafValues>
        -0.80476188659667969 0.10000000149011612</leafValues></_>
    <_>
      <internalNodes>
        0 -1 581027 -892883693 978844092 1074401779 2132133658
        1267417151 1091717257 449274559 768289667</internalNodes>
      <leafValues>
        -0.73072254657745361 0.20184856653213501</leafValues></_>
    <_>
      <internalNodes>
        0 -1 281915 1187946502 1805865208 -100657697 1499612482
        1890724280 -818199928 1224800342 1004587658</internalNodes>
      <leafValues>
        -0.80681496858596802 0.2630411684513092</leafValues></_>
    <_>
      <internalNodes>
        0 -1 593567 1364298798 -657194873 151060938 1297875219
        -754792214 -1715847151 134382136 -189283526</internalNodes>
      <leafValues>
        -0.64854812622070312 0.39199009537696838</leafValues></_>
    <_>
      <internalNodes>
        0 -1 261611 -2095651977 33853655 1358958866 -1357217772
        538042794 -20871767 1261025741 -1396913220</internalNodes>
      <leafValues>
        -0.87564605474472046 0.31441700458526611</leafValues></_>
    <_>
      <internalNodes>
        0 -1 13757 -1005150411 -2066661289 1624975 1393236355 1385066838
        -896987008 1955462079 1597858675</internalNodes>
      <leafValues>
        -0.60755199193954468 0.43949887156486511</leafValues></_>
    <_>
      <internalNodes>
        0 -1 337558 424001706 1364730626 1092686104 1782488075
        -1316125755 -1180696294 679681167 -1123694058</internalNodes>
      <leafValues>
        -0.63371747732162476 0.46281388401985168</leafValues></_></weakClassifiers></stage5>
</opencv_storage>
