<?xml version="1.0"?>
<opencv_storage>
<stage11>
  <maxWeakCount>8</maxWeakCount>
  <stageThreshold>-0.95459282398223877</stageThreshold>
  <weakClassifiers>
    <_>
      <internalNodes>
        0 -1 76784 1361035615 -800351727 268501327 -1088827041
        -1031176121 -75464545 -1583774721 -33557781</internalNodes>
      <leafValues>
        -0.78287464380264282 0.26086956262588501</leafValues></_>
    <_>
      <internalNodes>
        0 -1 2282 -690497529 -480420586 -804435058 2137387242 -763248177
        -810874577 -2120518226 -516876569</internalNodes>
      <leafValues>
        -0.58946996927261353 0.31442642211914062</leafValues></_>
    <_>
      <internalNodes>
        0 -1 683839 -2125202671 853185478 -787981836 820871516
        1493897960 1309927497 -670965087 753197262</internalNodes>
      <leafValues>
        -0.70697921514511108 0.30878040194511414</leafValues></_>
    <_>
      <internalNodes>
        0 -1 601916 -1043729989 -246918251 -1861139813 -66714992
        -653661386 2142994601 2021687892 -343631865</internalNodes>
      <leafValues>
        -0.63841062784194946 0.3654402494430542</leafValues></_>
    <_>
      <internalNodes>
        0 -1 452054 -341 1862204391 -268456269 -839454725 -268445716 -1
        117439641 -1284147470</internalNodes>
      <leafValues>
        -0.46718662977218628 0.54520696401596069</leafValues></_>
    <_>
      <internalNodes>
        0 -1 14923 -250492693 -397174589 -1878897583 -1766682231
        -162958447 -502560615 -661945286 -186736108</internalNodes>
      <leafValues>
        -0.53092634677886963 0.51023125648498535</leafValues></_>
    <_>
      <internalNodes>
        0 -1 530414 -2130583476 -1085993578 1090539925 -847167221
        -208633569 2091096081 -124664741 -151932613</internalNodes>
      <leafValues>
        -0.47895160317420959 0.5602409839630127</leafValues></_>
    <_>
      <internalNodes>
        0 -1 135135 -804682694 -1970208620 -1860151080 -333905918 100543
        -1463812088 1184139 1569521678</internalNodes>
      <leafValues>
        -0.72445833683013916 0.398039311170578</leafValues></_></weakClassifiers></stage11>
</opencv_storage>
