<?xml version="1.0"?>
<opencv_storage>
<stage10>
  <maxWeakCount>7</maxWeakCount>
  <stageThreshold>-1.1484479904174805</stageThreshold>
  <weakClassifiers>
    <_>
      <internalNodes>
        0 -1 13230 -341970961 -169873393 -729710591 -1282027325
        1540442555 -100059711 -83651961 -70257685</internalNodes>
      <leafValues>
        -0.81092095375061035 -0.028901733458042145</leafValues></_>
    <_>
      <internalNodes>
        0 -1 441755 1161893877 -573177796 -519762596 -41117696 546880979
        -549814037 -275846699 -932009624</internalNodes>
      <leafValues>
        -0.72658312320709229 0.14264224469661713</leafValues></_>
    <_>
      <internalNodes>
        0 -1 605010 2006172377 -23658425 -1794030269 211101914
        -1976853955 2071888057 -234503817 -980095198</internalNodes>
      <leafValues>
        -0.65553879737854004 0.31553590297698975</leafValues></_>
    <_>
      <internalNodes>
        0 -1 7835 -1838569609 -1920496130 276824465 1925165554
        -1585026565 -475463101 -1056146177 959468423</internalNodes>
      <leafValues>
        -0.68182921409606934 0.31489145755767822</leafValues></_>
    <_>
      <internalNodes>
        0 -1 127143 -1676577500 1593901976 -2080261987 -753512317
        -803365957 747619714 -742936436 -1537481442</internalNodes>
      <leafValues>
        -0.60674089193344116 0.40666672587394714</leafValues></_>
    <_>
      <internalNodes>
        0 -1 536894 -745758760 -1149035771 153157646 1707266477
        -511489815 -1751504896 -1607800641 1464222372</internalNodes>
      <leafValues>
        -0.73372757434844971 0.33078959584236145</leafValues></_>
    <_>
      <internalNodes>
        0 -1 485693 95667710 1364562073 -2130607587 -1370455673
        1342339647 1971945602 595691535 1749229577</internalNodes>
      <leafValues>
        -0.66227686405181885 0.39823347330093384</leafValues></_></weakClassifiers></stage10>
</opencv_storage>
