<?xml version="1.0"?>
<opencv_storage>
<stage0>
  <maxWeakCount>7</maxWeakCount>
  <stageThreshold>-6.2240922451019287e-01</stageThreshold>
  <weakClassifiers>
    <_>
      <internalNodes>
        0 -1 94507 -2.5551788508892059e-02</internalNodes>
      <leafValues>
        8.3333331346511841e-01 -6.6176468133926392e-01</leafValues></_>
    <_>
      <internalNodes>
        0 -1 232 -2.3939388338476419e-03</internalNodes>
      <leafValues>
        5.0299715995788574e-01 -5.8197760581970215e-01</leafValues></_>
    <_>
      <internalNodes>
        0 -1 111911 -8.1727523356676102e-03</internalNodes>
      <leafValues>
        8.2678639888763428e-01 -4.4835233688354492e-01</leafValues></_>
    <_>
      <internalNodes>
        0 -1 24711 1.8642714247107506e-02</internalNodes>
      <leafValues>
        -6.0755074024200439e-01 5.3079849481582642e-01</leafValues></_>
    <_>
      <internalNodes>
        0 -1 144023 -2.8490149416029453e-03</internalNodes>
      <leafValues>
        -9.8055851459503174e-01 3.0437448620796204e-01</leafValues></_>
    <_>
      <internalNodes>
        0 -1 102931 -4.2922776192426682e-03</internalNodes>
      <leafValues>
        7.1733492612838745e-01 -4.7246524691581726e-01</leafValues></_>
    <_>
      <internalNodes>
        0 -1 69005 3.0349325388669968e-03</internalNodes>
      <leafValues>
        -3.7799713015556335e-01 8.3846068382263184e-01</leafValues></_></weakClassifiers></stage0>
</opencv_storage>
