<?xml version="1.0"?>
<opencv_storage>
<stage15>
  <maxWeakCount>5</maxWeakCount>
  <stageThreshold>-8.0763244628906250e-01</stageThreshold>
  <weakClassifiers>
    <_>
      <internalNodes>
        0 -1 13210 1.2107628863304853e-03</internalNodes>
      <leafValues>
        4.1935482621192932e-01 -7.5000000000000000e-01</leafValues></_>
    <_>
      <internalNodes>
        0 -1 103755 -1.7366029787808657e-03</internalNodes>
      <leafValues>
        5.7083511352539063e-01 -5.1334422826766968e-01</leafValues></_>
    <_>
      <internalNodes>
        0 -1 96705 -1.3861984014511108e-02</internalNodes>
      <leafValues>
        -6.5388953685760498e-01 3.5740765929222107e-01</leafValues></_>
    <_>
      <internalNodes>
        0 -1 18014 -2.7465328457765281e-04</internalNodes>
      <leafValues>
        -8.8500154018402100e-01 1.9351410865783691e-01</leafValues></_>
    <_>
      <internalNodes>
        0 -1 63575 6.2301201978698373e-04</internalNodes>
      <leafValues>
        -2.5326767563819885e-01 7.6192444562911987e-01</leafValues></_></weakClassifiers></stage15>
</opencv_storage>
