<?xml version="1.0"?>
<opencv_storage>
<stage2>
  <maxWeakCount>6</maxWeakCount>
  <stageThreshold>-1.507026195526123</stageThreshold>
  <weakClassifiers>
    <_>
      <internalNodes>
        0 -1 12412 -1867005953 -527377 -67663377 -6304857 1674533567
        -268751953 -344064001 -8426805</internalNodes>
      <leafValues>
        -0.86959248781204224 -0.063414633274078369</leafValues></_>
    <_>
      <internalNodes>
        0 -1 1025393 -1007687769 2111828887 -650340595 1121506203
        1587909629 1372238830 -560758886 -1060241698</internalNodes>
      <leafValues>
        -0.76102221012115479 0.25807002186775208</leafValues></_>
    <_>
      <internalNodes>
        0 -1 230510 -672799186 -523269697 1489339390 1932882894
        2062317366 1475955387 -337674306 -1533870085</internalNodes>
      <leafValues>
        -0.81153583526611328 0.34953311085700989</leafValues></_>
    <_>
      <internalNodes>
        0 -1 1012751 -740976428 190906303 -373042733 1537209807
        1372844989 759596803 -557475143 276298963</internalNodes>
      <leafValues>
        -0.80618363618850708 0.3906475305557251</leafValues></_>
    <_>
      <internalNodes>
        0 -1 453237 -2023823438 -583029291 1157736510 -483355718
        -878143034 -658005571 -7929874 -154082816</internalNodes>
      <leafValues>
        -0.91517525911331177 0.35867145657539368</leafValues></_>
    <_>
      <internalNodes>
        0 -1 932041 -530608764 756245846 1091409870 -1411868729
        1185640381 902516200 -41081428 451930846</internalNodes>
      <leafValues>
        -0.82968515157699585 0.36354425549507141</leafValues></_></weakClassifiers></stage2>
</opencv_storage>
