<?xml version="1.0"?>
<opencv_storage>
<stage6>
  <maxWeakCount>7</maxWeakCount>
  <stageThreshold>-1.064937949180603</stageThreshold>
  <weakClassifiers>
    <_>
      <internalNodes>
        0 -1 747402 -2099269 2084803455 -221013127 -283641643 -41296897
        -17192459 -1277461253 -2377483</internalNodes>
      <leafValues>
        -0.86700767278671265 -0.18644067645072937</leafValues></_>
    <_>
      <internalNodes>
        0 -1 45913 -317620434 949810435 -653175864 -19819617 1490812918
        1783175319 2142127362 2010377935</internalNodes>
      <leafValues>
        -0.85376149415969849 0.063175410032272339</leafValues></_>
    <_>
      <internalNodes>
        0 -1 459796 -1390941841 -819422129 1653807077 -9399682
        1842204286 -104938017 1133505518 2020740897</internalNodes>
      <leafValues>
        -0.80384260416030884 0.29058018326759338</leafValues></_>
    <_>
      <internalNodes>
        0 -1 993190 1838262879 1406032879 1935729143 -1376848385
        -1718220545 1153077651 -352166993 1095689199</internalNodes>
      <leafValues>
        -0.67807102203369141 0.40129721164703369</leafValues></_>
    <_>
      <internalNodes>
        0 -1 88506 -1097485005 -680533173 -1734524706 -636993186
        2106823359 -72447158 2064474422 1911635956</internalNodes>
      <leafValues>
        -0.73795211315155029 0.4179309606552124</leafValues></_>
    <_>
      <internalNodes>
        0 -1 768681 -304945475 1830720436 1359000978 500566535
        -1151776694 -620134176 -1138945804 -605565296</internalNodes>
      <leafValues>
        -0.70257103443145752 0.46302884817123413</leafValues></_>
    <_>
      <internalNodes>
        0 -1 643807 2030333960 1967912841 1225373979 -942421853
        -1321209409 -911212367 193954543 -180772780</internalNodes>
      <leafValues>
        -0.64078307151794434 0.48754009604454041</leafValues></_></weakClassifiers></stage6>
</opencv_storage>
