<?xml version="1.0"?>
<opencv_storage>
<stage6>
  <maxWeakCount>5</maxWeakCount>
  <stageThreshold>-0.3357711136341095</stageThreshold>
  <weakClassifiers>
    <_>
      <internalNodes>
        0 -1 308560 1610855743 1494307153 -788475519 -914026232
        -2122272381 -133644288 -1459560293 -1157979685</internalNodes>
      <leafValues>
        -0.74879229068756104 0.37190082669258118</leafValues></_>
    <_>
      <internalNodes>
        0 -1 9516 67131991 -195377099 -1055850238 -758603005 17335079
        1782616200 -1198765469 530606923</internalNodes>
      <leafValues>
        -0.87382739782333374 0.36630138754844666</leafValues></_>
    <_>
      <internalNodes>
        0 -1 357189 -541064763 -1719103488 -1610477301 -679378757
        -1606251544 -1602191225 -765769601 -505355580</internalNodes>
      <leafValues>
        -0.83774155378341675 0.43129831552505493</leafValues></_>
    <_>
      <internalNodes>
        0 -1 104514 -1610505962 1456472510 -1694170842 1628750080
        538823505 -108486630 671097514 -1177128445</internalNodes>
      <leafValues>
        -0.79908895492553711 0.47739297151565552</leafValues></_>
    <_>
      <internalNodes>
        0 -1 217024 1275470099 -1873701168 -1790885879 -1378500217
        -1599978606 -526385152 1359044760 -1162971112</internalNodes>
      <leafValues>
        -0.70618265867233276 0.58781558275222778</leafValues></_></weakClassifiers></stage6>
</opencv_storage>
