<?xml version="1.0"?>
<opencv_storage>
<stage7>
  <maxWeakCount>5</maxWeakCount>
  <stageThreshold>-0.68703263998031616</stageThreshold>
  <weakClassifiers>
    <_>
      <internalNodes>
        0 -1 159643 -1713382919 -2112482329 1359020120 151113782
        -603286530 -1694054110 -1192754437 -321850808</internalNodes>
      <leafValues>
        -0.89274448156356812 0.082568809390068054</leafValues></_>
    <_>
      <internalNodes>
        0 -1 385732 -114890977 1536688397 -1534787195 -1700687711
        -1056929761 1217564820 38143025 -137034924</internalNodes>
      <leafValues>
        -0.79341089725494385 0.38077148795127869</leafValues></_>
    <_>
      <internalNodes>
        0 -1 205238 40189343 -617852911 -796818220 1469608320 1414099110
        -2000605122 -662557190 2140411299</internalNodes>
      <leafValues>
        -0.80477488040924072 0.46704238653182983</leafValues></_>
    <_>
      <internalNodes>
        0 -1 237729 -1311690242 -251330560 318804043 -1543503781
        -1837045574 -1476329343 -931024221 -930028672</internalNodes>
      <leafValues>
        -0.78567272424697876 0.51504689455032349</leafValues></_>
    <_>
      <internalNodes>
        0 -1 330910 571539591 -771653603 1612251392 -1312484715
        -1828650880 -2130083456 -2147355510 -1031755680</internalNodes>
      <leafValues>
        -0.83174258470535278 0.54456651210784912</leafValues></_></weakClassifiers></stage7>
</opencv_storage>
