<?xml version="1.0"?>
<opencv_storage>
<stage3>
  <maxWeakCount>5</maxWeakCount>
  <stageThreshold>-0.41593152284622192</stageThreshold>
  <weakClassifiers>
    <_>
      <internalNodes>
        0 -1 138569 -183261857 -1312714481 262337 -784052086 -771651365
        -528441191 -1853699857 1690002059</internalNodes>
      <leafValues>
        -0.80104714632034302 0.26797387003898621</leafValues></_>
    <_>
      <internalNodes>
        0 -1 238402 1553288462 789934281 -1044295419 -644804279
        -2013208551 1653375243 -1463424791 849332906</internalNodes>
      <leafValues>
        -0.83261126279830933 0.40962514281272888</leafValues></_>
    <_>
      <internalNodes>
        0 -1 311643 -775308962 1443958805 70667 -175666365 -641498231
        -1164425087 -247428986 1671574082</internalNodes>
      <leafValues>
        -0.85145539045333862 0.45944154262542725</leafValues></_>
    <_>
      <internalNodes>
        0 -1 377425 -340446248 -1862237824 1073774595 1191346306
        -914126718 -1476165632 -1039630303 -1697348980</internalNodes>
      <leafValues>
        -0.88853824138641357 0.43253201246261597</leafValues></_>
    <_>
      <internalNodes>
        0 -1 49754 1761723167 1881227328 -1878978424 -570417150
        -1463254389 -1828126526 1745426575 -1058831798</internalNodes>
      <leafValues>
        -0.67460709810256958 0.69780427217483521</leafValues></_></weakClassifiers></stage3>
</opencv_storage>
