<?xml version="1.0"?>
<opencv_storage>
<stage5>
  <maxWeakCount>7</maxWeakCount>
  <stageThreshold>-2.4174617230892181e-01</stageThreshold>
  <weakClassifiers>
    <_>
      <internalNodes>
        0 -1 11499 -1.7949476023204625e-04</internalNodes>
      <leafValues>
        -5.7692307233810425e-01 3.4482759237289429e-01</leafValues></_>
    <_>
      <internalNodes>
        0 -1 565 9.4635430723428726e-03</internalNodes>
      <leafValues>
        2.4909254908561707e-01 -7.6008087396621704e-01</leafValues></_>
    <_>
      <internalNodes>
        0 -1 159963 -7.8796831076033413e-05</internalNodes>
      <leafValues>
        -6.4490520954132080e-01 3.5439157485961914e-01</leafValues></_>
    <_>
      <internalNodes>
        0 -1 160668 -5.4084154544398189e-04</internalNodes>
      <leafValues>
        -5.6835275888442993e-01 3.5157459974288940e-01</leafValues></_>
    <_>
      <internalNodes>
        0 -1 105586 1.0396631434559822e-02</internalNodes>
      <leafValues>
        -3.2353562116622925e-01 7.6099711656570435e-01</leafValues></_>
    <_>
      <internalNodes>
        0 -1 87169 8.4532686742022634e-04</internalNodes>
      <leafValues>
        -5.0548851490020752e-01 5.9366732835769653e-01</leafValues></_>
    <_>
      <internalNodes>
        0 -1 1 -1.0160087549593300e-04</internalNodes>
      <leafValues>
        -7.1260833740234375e-01 3.7906405329704285e-01</leafValues></_></weakClassifiers></stage5>
</opencv_storage>
