<?xml version="1.0"?>
<opencv_storage>
<cascade>
  <stageType>BOOST</stageType>
  <featureType>LBP</featureType>
  <height>80</height>
  <width>80</width>
  <stageParams>
    <boostType>GAB</boostType>
    <minHitRate>0.99500000476837158</minHitRate>
    <maxFalseAlarm>0.25</maxFalseAlarm>
    <weightTrimRate>0.94999999999999996</weightTrimRate>
    <maxDepth>1</maxDepth>
    <maxWeakCount>100</maxWeakCount></stageParams>
  <featureParams>
    <maxCatCount>256</maxCatCount>
    <featSize>1</featSize></featureParams>
  <stageNum>12</stageNum>
  <stages>
    <!-- stage 0 -->
    <_>
      <maxWeakCount>5</maxWeakCount>
      <stageThreshold>-1.4993742704391479</stageThreshold>
      <weakClassifiers>
        <_>
          <internalNodes>
            0 -1 21 -741608449 -686165861 1628131676 1542934811
            -796280385 -100040573 285403887 1002389483</internalNodes>
          <leafValues>
            -0.94466406106948853 0.12056737393140793</leafValues></_>
        <_>
          <internalNodes>
            0 -1 34 -179045412 -649543275 -1048538919 -5382069
            -376848196 1887600642 -99892577 426447791</internalNodes>
          <leafValues>
            -0.92118501663208008 0.24984683096408844</leafValues></_>
        <_>
          <internalNodes>
            0 -1 43 -242573827 138510608 -2147382383 -993918952
            -2113883442 1501626377 -896935775 -560136207</internalNodes>
          <leafValues>
            -0.81447309255599976 0.50608241558074951</leafValues></_>
        <_>
          <internalNodes>
            0 -1 39 -592469718 1193803931 1361166586 333681029
            1930021818 17866894 188969471 -1077938053</internalNodes>
          <leafValues>
            -0.77640354633331299 0.55669486522674561</leafValues></_>
        <_>
          <internalNodes>
            0 -1 0 -422128654 1930027417 -1853832818 -705326966
            1510204151 -1425833827 -527569233 -81270249</internalNodes>
          <leafValues>
            -0.70704430341720581 0.63679599761962891</leafValues></_></weakClassifiers></_>
    <!-- stage 1 -->
    <_>
      <maxWeakCount>6</maxWeakCount>
      <stageThreshold>-1.1834890842437744</stageThreshold>
      <weakClassifiers>
        <_>
          <internalNodes>
            0 -1 23 -35653697 -752905659 1627476251 1431022111
            2053628923 -57694072 -293340193 -1049605</internalNodes>
          <leafValues>
            -0.85299348831176758 0.3451327383518219</leafValues></_>
        <_>
          <internalNodes>
            0 -1 49 -151257123 -1324228347 -351878911 -170616702
            -494616097 -251592693 -362041192 -827397507</internalNodes>
          <leafValues>
            -0.83379405736923218 0.36878544092178345</leafValues></_>
        <_>
          <internalNodes>
            0 -1 8 -67174914 -134520879 -1861055480 -8847909 -13055026
            -73774869 -809062289 187856235</internalNodes>
          <leafValues>
            -0.92694371938705444 0.3322908878326416</leafValues></_>
        <_>
          <internalNodes>
            0 -1 33 -380244946 1390118539 -721418280 1264054290
            1941145788 328464460 1519316365 -1054497</internalNodes>
          <leafValues>
            -0.7332577109336853 0.53142058849334717</leafValues></_>
        <_>
          <internalNodes>
            0 -1 35 -46738814 -41772578 73930 -1382121446 1259059352
            -343244307 -938405568 -597952417</internalNodes>
          <leafValues>
            -0.7809823751449585 0.5314406156539917</leafValues></_>
        <_>
          <internalNodes>
            0 -1 63 -803616931 -801033213 889264003 -603406189
            -1340028336 152080784 -930568143 -1132150192</internalNodes>
          <leafValues>
            -0.7686464786529541 0.50340127944946289</leafValues></_></weakClassifiers></_>
    <!-- stage 2 -->
    <_>
      <maxWeakCount>6</maxWeakCount>
      <stageThreshold>-1.507026195526123</stageThreshold>
      <weakClassifiers>
        <_>
          <internalNodes>
            0 -1 1 -1867005953 -527377 -67663377 -6304857 1674533567
            -268751953 -344064001 -8426805</internalNodes>
          <leafValues>
            -0.86959248781204224 -0.063414633274078369</leafValues></_>
        <_>
          <internalNodes>
            0 -1 68 -1007687769 2111828887 -650340595 1121506203
            1587909629 1372238830 -560758886 -1060241698</internalNodes>
          <leafValues>
            -0.76102221012115479 0.25807002186775208</leafValues></_>
        <_>
          <internalNodes>
            0 -1 17 -672799186 -523269697 1489339390 1932882894
            2062317366 1475955387 -337674306 -1533870085</internalNodes>
          <leafValues>
            -0.81153583526611328 0.34953311085700989</leafValues></_>
        <_>
          <internalNodes>
            0 -1 67 -740976428 190906303 -373042733 1537209807
            1372844989 759596803 -557475143 276298963</internalNodes>
          <leafValues>
            -0.80618363618850708 0.3906475305557251</leafValues></_>
        <_>
          <internalNodes>
            0 -1 30 -2023823438 -583029291 1157736510 -483355718
            -878143034 -658005571 -7929874 -154082816</internalNodes>
          <leafValues>
            -0.91517525911331177 0.35867145657539368</leafValues></_>
        <_>
          <internalNodes>
            0 -1 59 -530608764 756245846 1091409870 -1411868729
            1185640381 902516200 -41081428 451930846</internalNodes>
          <leafValues>
            -0.82968515157699585 0.36354425549507141</leafValues></_></weakClassifiers></_>
    <!-- stage 3 -->
    <_>
      <maxWeakCount>6</maxWeakCount>
      <stageThreshold>-1.348893404006958</stageThreshold>
      <weakClassifiers>
        <_>
          <internalNodes>
            0 -1 16 2147172151 1031269303 -588792321 2147171516
            2062811135 -1907713 -92672002 -1073774609</internalNodes>
          <leafValues>
            -0.90034604072570801 -0.27887323498725891</leafValues></_>
        <_>
          <internalNodes>
            0 -1 55 -627065025 -188878401 -787848801 -151327082
            -41686145 -1197350194 -24384688 -320422956</internalNodes>
          <leafValues>
            -0.84864562749862671 0.1342427134513855</leafValues></_>
        <_>
          <internalNodes>
            0 -1 6 1072073663 -149244055 -1077565474 1945169902
            2005865445 2073811519 1928064875 992639988</internalNodes>
          <leafValues>
            -0.87092489004135132 0.29838579893112183</leafValues></_>
        <_>
          <internalNodes>
            0 -1 69 -37257281 -61750833 -989752865 -84227195 -360593121
            1538230155 -39089601 1584458687</internalNodes>
          <leafValues>
            -0.83579272031784058 0.34936597943305969</leafValues></_>
        <_>
          <internalNodes>
            0 -1 46 -44056609 -469704301 -532049825 -670150566
            -528234123 -571834117 -401564 -420174940</internalNodes>
          <leafValues>
            -0.71123367547988892 0.47918519377708435</leafValues></_>
        <_>
          <internalNodes>
            0 -1 5 1047658129 -589366218 -57370785 -22231200 105878389
            -38387193 -163507733 1730498838</internalNodes>
          <leafValues>
            -0.76369673013687134 0.46358013153076172</leafValues></_></weakClassifiers></_>
    <!-- stage 4 -->
    <_>
      <maxWeakCount>6</maxWeakCount>
      <stageThreshold>-1.272112250328064</stageThreshold>
      <weakClassifiers>
        <_>
          <internalNodes>
            0 -1 28 -65545 -242890005 -441069793 -3824865 2132730879
            -1128408423 -1447457 -268727333</internalNodes>
          <leafValues>
            -0.84652566909790039 0.0068965516984462738</leafValues></_>
        <_>
          <internalNodes>
            0 -1 66 1625288703 934900109 1573614923 201324447 -880322057
            2113459450 -320926984 -533595150</internalNodes>
          <leafValues>
            -0.75619488954544067 0.21098481118679047</leafValues></_>
        <_>
          <internalNodes>
            0 -1 40 -1367396484 2127914333 -575594277 2145372626
            -1348611586 2144186059 -661657104 855585726</internalNodes>
          <leafValues>
            -0.88041174411773682 0.27170315384864807</leafValues></_>
        <_>
          <internalNodes>
            0 -1 26 -268517624 816810463 1829007069 1744187769
            1877800829 2144330115 -68718885 -1514688534</internalNodes>
          <leafValues>
            -0.71246439218521118 0.39798343181610107</leafValues></_>
        <_>
          <internalNodes>
            0 -1 62 -459806929 -1856711693 -795486899 927903879
            -937725401 1101260931 -958238985 1810735871</internalNodes>
          <leafValues>
            -0.66728508472442627 0.49487048387527466</leafValues></_>
        <_>
          <internalNodes>
            0 -1 38 1112789945 -1277455796 1402036669 -1632855714
            2043896186 -1446289398 -1681156004 -312762029</internalNodes>
          <leafValues>
            -0.5769231915473938 0.56942456960678101</leafValues></_></weakClassifiers></_>
    <!-- stage 5 -->
    <_>
      <maxWeakCount>6</maxWeakCount>
      <stageThreshold>-1.5848985910415649</stageThreshold>
      <weakClassifiers>
        <_>
          <internalNodes>
            0 -1 20 -1754802177 -61912625 -1005295617 2107039379
            974107647 -46234485 -830603265 -266005</internalNodes>
          <leafValues>
            -0.85687845945358276 -0.061452515423297882</leafValues></_>
        <_>
          <internalNodes>
            0 -1 56 -379659393 -234303099 -1048346339 -1311971822
            -485523713 -375287037 -571737402 -386598060</internalNodes>
          <leafValues>
            -0.89250504970550537 0.072550863027572632</leafValues></_>
        <_>
          <internalNodes>
            0 -1 70 1002938095 -135794197 -1801892029 -1109559529
            2039982003 -1124660325 726190959 14838743</internalNodes>
          <leafValues>
            -0.72836834192276001 0.34233474731445312</leafValues></_>
        <_>
          <internalNodes>
            0 -1 13 -10757697 1325643382 -15467298 41215922 -6397441
            -69884515 -179693564 -1982137443</internalNodes>
          <leafValues>
            -0.66510295867919922 0.46988978981971741</leafValues></_>
        <_>
          <internalNodes>
            0 -1 27 -1572360395 -285951525 -1538665003 1576308499
            1005058041 -326413902 2093462651 -1890927910</internalNodes>
          <leafValues>
            -0.61994051933288574 0.51494461297988892</leafValues></_>
        <_>
          <internalNodes>
            0 -1 42 -624739041 2039843825 -586874736 -408627937
            -543574331 -50243520 96897759 1799205672</internalNodes>
          <leafValues>
            -0.65328824520111084 0.496122807264328</leafValues></_></weakClassifiers></_>
    <!-- stage 6 -->
    <_>
      <maxWeakCount>7</maxWeakCount>
      <stageThreshold>-1.064937949180603</stageThreshold>
      <weakClassifiers>
        <_>
          <internalNodes>
            0 -1 44 -2099269 2084803455 -221013127 -283641643 -41296897
            -17192459 -1277461253 -2377483</internalNodes>
          <leafValues>
            -0.86700767278671265 -0.18644067645072937</leafValues></_>
        <_>
          <internalNodes>
            0 -1 7 -317620434 949810435 -653175864 -19819617 1490812918
            1783175319 2142127362 2010377935</internalNodes>
          <leafValues>
            -0.85376149415969849 0.063175410032272339</leafValues></_>
        <_>
          <internalNodes>
            0 -1 31 -1390941841 -819422129 1653807077 -9399682
            1842204286 -104938017 1133505518 2020740897</internalNodes>
          <leafValues>
            -0.80384260416030884 0.29058018326759338</leafValues></_>
        <_>
          <internalNodes>
            0 -1 65 1838262879 1406032879 1935729143 -1376848385
            -1718220545 1153077651 -352166993 1095689199</internalNodes>
          <leafValues>
            -0.67807102203369141 0.40129721164703369</leafValues></_>
        <_>
          <internalNodes>
            0 -1 10 -1097485005 -680533173 -1734524706 -636993186
            2106823359 -72447158 2064474422 1911635956</internalNodes>
          <leafValues>
            -0.73795211315155029 0.4179309606552124</leafValues></_>
        <_>
          <internalNodes>
            0 -1 45 -304945475 1830720436 1359000978 500566535
            -1151776694 -620134176 -1138945804 -605565296</internalNodes>
          <leafValues>
            -0.70257103443145752 0.46302884817123413</leafValues></_>
        <_>
          <internalNodes>
            0 -1 37 2030333960 1967912841 1225373979 -942421853
            -1321209409 -911212367 193954543 -180772780</internalNodes>
          <leafValues>
            -0.64078307151794434 0.48754009604454041</leafValues></_></weakClassifiers></_>
    <!-- stage 7 -->
    <_>
      <maxWeakCount>6</maxWeakCount>
      <stageThreshold>-1.3967196941375732</stageThreshold>
      <weakClassifiers>
        <_>
          <internalNodes>
            0 -1 11 -40894601 -317069755 -787226215 -149696053
            2142764799 -41317934 -74516273 -9053185</internalNodes>
          <leafValues>
            -0.85661309957504272 -0.076923079788684845</leafValues></_>
        <_>
          <internalNodes>
            0 -1 2 -570638474 -224593097 1073840131 -1625294401
            1378573181 1585548024 -511122769 1914108863</internalNodes>
          <leafValues>
            -0.7486996054649353 0.16308608651161194</leafValues></_>
        <_>
          <internalNodes>
            0 -1 50 -1843511429 218930451 -1985772481 1784858543
            -1299059699 -70696792 -1736260878 -1498908751</internalNodes>
          <leafValues>
            -0.75060582160949707 0.34574437141418457</leafValues></_>
        <_>
          <internalNodes>
            0 -1 52 -2130203521 -1856114318 -855539433 2145162521
            -314315410 966414566 1048973819 2045160246</internalNodes>
          <leafValues>
            -0.66644996404647827 0.41567966341972351</leafValues></_>
        <_>
          <internalNodes>
            0 -1 29 1843634857 2048571545 -175586356 -473626156
            1535751068 1797882705 -659863105 1871401864</internalNodes>
          <leafValues>
            -0.6767612099647522 0.46342232823371887</leafValues></_>
        <_>
          <internalNodes>
            0 -1 48 -934286833 1978636682 -610926525 591634443
            1816714797 1393610880 -1475495587 713734568</internalNodes>
          <leafValues>
            -0.65575975179672241 0.47182354331016541</leafValues></_></weakClassifiers></_>
    <!-- stage 8 -->
    <_>
      <maxWeakCount>6</maxWeakCount>
      <stageThreshold>-1.082727313041687</stageThreshold>
      <weakClassifiers>
        <_>
          <internalNodes>
            0 -1 14 2108658167 -571236915 -1793914925 -620263877
            -1040056901 -1857388149 -338764869 -4477958</internalNodes>
          <leafValues>
            -0.82373273372650146 0.46875</leafValues></_>
        <_>
          <internalNodes>
            0 -1 57 1932485193 -785274133 -1720637963 -541732209
            -623252338 -416045655 -989730385 -34154163</internalNodes>
          <leafValues>
            -0.72279185056686401 0.24701464176177979</leafValues></_>
        <_>
          <internalNodes>
            0 -1 54 -1731241558 -1159161405 -697723521 965714774
            43633867 -1351646990 939616277 -537397659</internalNodes>
          <leafValues>
            -0.72631418704986572 0.38748690485954285</leafValues></_>
        <_>
          <internalNodes>
            0 -1 4 -2066838530 -1924712163 964694526 -695733679
            -523396161 -509377841 -2013689859 895826666</internalNodes>
          <leafValues>
            -0.76383483409881592 0.38029181957244873</leafValues></_>
        <_>
          <internalNodes>
            0 -1 24 2139120934 906565714 1296157364 1024594312 109921278
            1804634657 2073029128 -1486685725</internalNodes>
          <leafValues>
            -0.76323574781417847 0.42225757241249084</leafValues></_>
        <_>
          <internalNodes>
            0 -1 64 1879031805 2146836478 -1342259265 -805376001
            -1342324761 -268435458 -1082133256 -470059653</internalNodes>
          <leafValues>
            -0.51055222749710083 0.68862318992614746</leafValues></_></weakClassifiers></_>
    <!-- stage 9 -->
    <_>
      <maxWeakCount>6</maxWeakCount>
      <stageThreshold>-1.1379561424255371</stageThreshold>
      <weakClassifiers>
        <_>
          <internalNodes>
            0 -1 19 -580912641 -549349485 1628500443 -1724966621
            -72241413 -87760743 -1154635281 -67402821</internalNodes>
          <leafValues>
            -0.8165242075920105 0.73333334922790527</leafValues></_>
        <_>
          <internalNodes>
            0 -1 58 -1447060741 -658179577 -483024421 -514352753
            1732477177 -393576255 -2002171233 -2087932605</internalNodes>
          <leafValues>
            -0.64523124694824219 0.34610006213188171</leafValues></_>
        <_>
          <internalNodes>
            0 -1 9 1971298151 1082639099 -1311656813 768147995
            1386402099 1598999183 -359522516 -1144023457</internalNodes>
          <leafValues>
            -0.62415087223052979 0.45423448085784912</leafValues></_>
        <_>
          <internalNodes>
            0 -1 61 1667010478 1876019922 -1710178289 -102837694
            -877163620 29610498 1838766500 1959715643</internalNodes>
          <leafValues>
            -0.82072120904922485 0.34455466270446777</leafValues></_>
        <_>
          <internalNodes>
            0 -1 12 1799683306 5315781 -2108663610 815645942 1491492926
            -665839476 -1072650199 -1401476638</internalNodes>
          <leafValues>
            -0.68512248992919922 0.45894414186477661</leafValues></_>
        <_>
          <internalNodes>
            0 -1 22 -797837372 50500107 1196576862 -2055102167
            -134108685 847611137 -83773633 183683074</internalNodes>
          <leafValues>
            -0.75998944044113159 0.41313979029655457</leafValues></_></weakClassifiers></_>
    <!-- stage 10 -->
    <_>
      <maxWeakCount>6</maxWeakCount>
      <stageThreshold>-1.5272790193557739</stageThreshold>
      <weakClassifiers>
        <_>
          <internalNodes>
            0 -1 51 -673972225 -674889800 -37748753 -4229377 -21
            -33554451 -1082195973 -16001153</internalNodes>
          <leafValues>
            -0.81097906827926636 1.</leafValues></_>
        <_>
          <internalNodes>
            0 -1 47 454783837 139493604 1440841797 -149557028 1810221950
            -626604895 -920696559 -158669872</internalNodes>
          <leafValues>
            -0.83814728260040283 0.14354114234447479</leafValues></_>
        <_>
          <internalNodes>
            0 -1 41 1553556632 -1195009195 -1813870123 -1999838849
            -1824832994 -73672657 525546812 -412561362</internalNodes>
          <leafValues>
            -0.79914122819900513 0.29194897413253784</leafValues></_>
        <_>
          <internalNodes>
            0 -1 3 493351839 -2091521525 -1878884215 -720125941
            -125647447 1342177426 -1031098934 1909058031</internalNodes>
          <leafValues>
            -0.76947861909866333 0.36207017302513123</leafValues></_>
        <_>
          <internalNodes>
            0 -1 71 -378537602 840472832 -1879043557 570839171
            1610715554 1107853451 -498861742 1286601505</internalNodes>
          <leafValues>
            -0.60649287700653076 0.52003872394561768</leafValues></_>
        <_>
          <internalNodes>
            0 -1 25 -918911670 1245289113 1023799949 -1349140472
            1653153278 -1174757201 -1484750105 -1165088629</internalNodes>
          <leafValues>
            -0.64055067300796509 0.51240485906600952</leafValues></_></weakClassifiers></_>
    <!-- stage 11 -->
    <_>
      <maxWeakCount>6</maxWeakCount>
      <stageThreshold>-1.1780680418014526</stageThreshold>
      <weakClassifiers>
        <_>
          <internalNodes>
            0 -1 15 1024554431 -40693705 471276959 -541780461
            -1727690597 -2004147915 -1145000001 -6324033</internalNodes>
          <leafValues>
            -0.82224768400192261 0.6071428656578064</leafValues></_>
        <_>
          <internalNodes>
            0 -1 36 -118318215 -472854422 310381899 1834115651
            -357441089 -257225497 1754204831 -1451968531</internalNodes>
          <leafValues>
            -0.67507117986679077 0.28214022517204285</leafValues></_>
        <_>
          <internalNodes>
            0 -1 60 -784392725 -1018970093 -536673313 -1421852589
            -1476261781 -1149237237 -829380687 -1561794443</internalNodes>
          <leafValues>
            -0.72256404161453247 0.37344968318939209</leafValues></_>
        <_>
          <internalNodes>
            0 -1 32 -384359513 -1793860271 1731825887 1822199894
            1344963363 2093191328 -1618775271 -1861567464</internalNodes>
          <leafValues>
            -0.67808187007904053 0.44046661257743835</leafValues></_>
        <_>
          <internalNodes>
            0 -1 18 860023555 520179712 1073753038 -1676242675 151069320
            1507922049 286523437 1157306501</internalNodes>
          <leafValues>
            -0.71409344673156738 0.44486784934997559</leafValues></_>
        <_>
          <internalNodes>
            0 -1 53 1452627641 1166793232 -1065262499 -2000453604
            940648745 159556747 587401601 -1421717881</internalNodes>
          <leafValues>
            -0.73778343200683594 0.42437726259231567</leafValues></_></weakClassifiers></_></stages>
  <features>
    <_>
      <rect>
        0 0 15 17</rect></_>
    <_>
      <rect>
        0 20 19 15</rect></_>
    <_>
      <rect>
        0 21 11 19</rect></_>
    <_>
      <rect>
        0 62 1 2</rect></_>
    <_>
      <rect>
        1 0 15 20</rect></_>
    <_>
      <rect>
        1 4 9 11</rect></_>
    <_>
      <rect>
        1 32 20 15</rect></_>
    <_>
      <rect>
        1 34 9 8</rect></_>
    <_>
      <rect>
        2 1 24 23</rect></_>
    <_>
      <rect>
        2 53 15 9</rect></_>
    <_>
      <rect>
        3 10 8 12</rect></_>
    <_>
      <rect>
        4 42 18 12</rect></_>
    <_>
      <rect>
        5 37 20 12</rect></_>
    <_>
      <rect>
        8 12 10 9</rect></_>
    <_>
      <rect>
        8 14 20 8</rect></_>
    <_>
      <rect>
        8 22 20 6</rect></_>
    <_>
      <rect>
        8 35 22 15</rect></_>
    <_>
      <rect>
        8 39 11 8</rect></_>
    <_>
      <rect>
        9 21 7 7</rect></_>
    <_>
      <rect>
        10 3 11 10</rect></_>
    <_>
      <rect>
        10 15 19 13</rect></_>
    <_>
      <rect>
        10 15 23 21</rect></_>
    <_>
      <rect>
        11 2 11 9</rect></_>
    <_>
      <rect>
        11 44 11 11</rect></_>
    <_>
      <rect>
        11 49 13 9</rect></_>
    <_>
      <rect>
        11 59 23 7</rect></_>
    <_>
      <rect>
        14 40 8 13</rect></_>
    <_>
      <rect>
        15 43 10 9</rect></_>
    <_>
      <rect>
        15 44 10 12</rect></_>
    <_>
      <rect>
        16 55 12 8</rect></_>
    <_>
      <rect>
        18 16 10 10</rect></_>
    <_>
      <rect>
        18 34 15 8</rect></_>
    <_>
      <rect>
        21 56 5 5</rect></_>
    <_>
      <rect>
        21 58 11 7</rect></_>
    <_>
      <rect>
        23 0 19 24</rect></_>
    <_>
      <rect>
        23 15 14 7</rect></_>
    <_>
      <rect>
        25 41 7 7</rect></_>
    <_>
      <rect>
        28 0 17 9</rect></_>
    <_>
      <rect>
        28 1 13 10</rect></_>
    <_>
      <rect>
        28 52 17 9</rect></_>
    <_>
      <rect>
        29 36 15 14</rect></_>
    <_>
      <rect>
        30 6 13 10</rect></_>
    <_>
      <rect>
        31 35 7 11</rect></_>
    <_>
      <rect>
        33 39 1 1</rect></_>
    <_>
      <rect>
        34 4 14 9</rect></_>
    <_>
      <rect>
        35 21 7 4</rect></_>
    <_>
      <rect>
        35 44 1 1</rect></_>
    <_>
      <rect>
        36 8 8 6</rect></_>
    <_>
      <rect>
        36 58 11 6</rect></_>
    <_>
      <rect>
        37 38 1 3</rect></_>
    <_>
      <rect>
        37 47 1 1</rect></_>
    <_>
      <rect>
        37 55 8 4</rect></_>
    <_>
      <rect>
        39 34 9 8</rect></_>
    <_>
      <rect>
        40 11 10 7</rect></_>
    <_>
      <rect>
        43 4 8 7</rect></_>
    <_>
      <rect>
        43 31 2 2</rect></_>
    <_>
      <rect>
        43 35 1 2</rect></_>
    <_>
      <rect>
        45 10 9 11</rect></_>
    <_>
      <rect>
        46 2 8 7</rect></_>
    <_>
      <rect>
        47 38 10 9</rect></_>
    <_>
      <rect>
        48 27 1 1</rect></_>
    <_>
      <rect>
        50 29 10 10</rect></_>
    <_>
      <rect>
        50 54 6 5</rect></_>
    <_>
      <rect>
        51 35 1 1</rect></_>
    <_>
      <rect>
        53 28 6 13</rect></_>
    <_>
      <rect>
        53 43 9 8</rect></_>
    <_>
      <rect>
        55 38 8 5</rect></_>
    <_>
      <rect>
        56 3 8 20</rect></_>
    <_>
      <rect>
        57 34 6 6</rect></_>
    <_>
      <rect>
        58 73 1 1</rect></_>
    <_>
      <rect>
        61 1 6 11</rect></_>
    <_>
      <rect>
        69 24 3 7</rect></_></features></cascade>
</opencv_storage>
