<?xml version="1.0"?>
<opencv_storage>
<stage11>
  <maxWeakCount>6</maxWeakCount>
  <stageThreshold>-1.1780680418014526</stageThreshold>
  <weakClassifiers>
    <_>
      <internalNodes>
        0 -1 224067 1024554431 -40693705 471276959 -541780461
        -1727690597 -2004147915 -1145000001 -6324033</internalNodes>
      <leafValues>
        -0.82224768400192261 0.6071428656578064</leafValues></_>
    <_>
      <internalNodes>
        0 -1 602166 -118318215 -472854422 310381899 1834115651
        -357441089 -257225497 1754204831 -1451968531</internalNodes>
      <leafValues>
        -0.67507117986679077 0.28214022517204285</leafValues></_>
    <_>
      <internalNodes>
        0 -1 941004 -784392725 -1018970093 -536673313 -1421852589
        -1476261781 -1149237237 -829380687 -1561794443</internalNodes>
      <leafValues>
        -0.72256404161453247 0.37344968318939209</leafValues></_>
    <_>
      <internalNodes>
        0 -1 526894 -384359513 -1793860271 1731825887 1822199894
        1344963363 2093191328 -1618775271 -1861567464</internalNodes>
      <leafValues>
        -0.67808187007904053 0.44046661257743835</leafValues></_>
    <_>
      <internalNodes>
        0 -1 248154 860023555 520179712 1073753038 -1676242675 151069320
        1507922049 286523437 1157306501</internalNodes>
      <leafValues>
        -0.71409344673156738 0.44486784934997559</leafValues></_>
    <_>
      <internalNodes>
        0 -1 838765 1452627641 1166793232 -1065262499 -2000453604
        940648745 159556747 587401601 -1421717881</internalNodes>
      <leafValues>
        -0.73778343200683594 0.42437726259231567</leafValues></_></weakClassifiers></stage11>
</opencv_storage>
