<?xml version="1.0"?>
<opencv_storage>
<stage8>
  <maxWeakCount>6</maxWeakCount>
  <stageThreshold>-1.082727313041687</stageThreshold>
  <weakClassifiers>
    <_>
      <internalNodes>
        0 -1 220190 2108658167 -571236915 -1793914925 -620263877
        -1040056901 -1857388149 -338764869 -4477958</internalNodes>
      <leafValues>
        -0.82373273372650146 0.46875</leafValues></_>
    <_>
      <internalNodes>
        0 -1 903237 1932485193 -785274133 -1720637963 -541732209
        -623252338 -416045655 -989730385 -34154163</internalNodes>
      <leafValues>
        -0.72279185056686401 0.24701464176177979</leafValues></_>
    <_>
      <internalNodes>
        0 -1 876460 -1731241558 -1159161405 -697723521 965714774
        43633867 -1351646990 939616277 -537397659</internalNodes>
      <leafValues>
        -0.72631418704986572 0.38748690485954285</leafValues></_>
    <_>
      <internalNodes>
        0 -1 27761 -2066838530 -1924712163 964694526 -695733679
        -523396161 -509377841 -2013689859 895826666</internalNodes>
      <leafValues>
        -0.76383483409881592 0.38029181957244873</leafValues></_>
    <_>
      <internalNodes>
        0 -1 306145 2139120934 906565714 1296157364 1024594312 109921278
        1804634657 2073029128 -1486685725</internalNodes>
      <leafValues>
        -0.76323574781417847 0.42225757241249084</leafValues></_>
    <_>
      <internalNodes>
        0 -1 991204 1879031805 2146836478 -1342259265 -805376001
        -1342324761 -268435458 -1082133256 -470059653</internalNodes>
      <leafValues>
        -0.51055222749710083 0.68862318992614746</leafValues></_></weakClassifiers></stage8>
</opencv_storage>
