<?xml version="1.0"?>
<opencv_storage>
<stage3>
  <maxWeakCount>6</maxWeakCount>
  <stageThreshold>-1.348893404006958</stageThreshold>
  <weakClassifiers>
    <_>
      <internalNodes>
        0 -1 229334 2147172151 1031269303 -588792321 2147171516
        2062811135 -1907713 -92672002 -1073774609</internalNodes>
      <leafValues>
        -0.90034604072570801 -0.27887323498725891</leafValues></_>
    <_>
      <internalNodes>
        0 -1 882992 -627065025 -188878401 -787848801 -151327082
        -41686145 -1197350194 -24384688 -320422956</internalNodes>
      <leafValues>
        -0.84864562749862671 0.1342427134513855</leafValues></_>
    <_>
      <internalNodes>
        0 -1 45298 1072073663 -149244055 -1077565474 1945169902
        2005865445 2073811519 1928064875 992639988</internalNodes>
      <leafValues>
        -0.87092489004135132 0.29838579893112183</leafValues></_>
    <_>
      <internalNodes>
        0 -1 1035050 -37257281 -61750833 -989752865 -84227195 -360593121
        1538230155 -39089601 1584458687</internalNodes>
      <leafValues>
        -0.83579272031784058 0.34936597943305969</leafValues></_>
    <_>
      <internalNodes>
        0 -1 773964 -44056609 -469704301 -532049825 -670150566
        -528234123 -571834117 -401564 -420174940</internalNodes>
      <leafValues>
        -0.71123367547988892 0.47918519377708435</leafValues></_>
    <_>
      <internalNodes>
        0 -1 30266 1047658129 -589366218 -57370785 -22231200 105878389
        -38387193 -163507733 1730498838</internalNodes>
      <leafValues>
        -0.76369673013687134 0.46358013153076172</leafValues></_></weakClassifiers></stage3>
</opencv_storage>
