<?xml version="1.0"?>
<opencv_storage>
<stage7>
  <maxWeakCount>6</maxWeakCount>
  <stageThreshold>-1.3967196941375732</stageThreshold>
  <weakClassifiers>
    <_>
      <internalNodes>
        0 -1 129149 -40894601 -317069755 -787226215 -149696053
        2142764799 -41317934 -74516273 -9053185</internalNodes>
      <leafValues>
        -0.85661309957504272 -0.076923079788684845</leafValues></_>
    <_>
      <internalNodes>
        0 -1 12766 -570638474 -224593097 1073840131 -1625294401
        1378573181 1585548024 -511122769 1914108863</internalNodes>
      <leafValues>
        -0.7486996054649353 0.16308608651161194</leafValues></_>
    <_>
      <internalNodes>
        0 -1 804134 -1843511429 218930451 -1985772481 1784858543
        -1299059699 -70696792 -1736260878 -1498908751</internalNodes>
      <leafValues>
        -0.75060582160949707 0.34574437141418457</leafValues></_>
    <_>
      <internalNodes>
        0 -1 830671 -2130203521 -1856114318 -855539433 2145162521
        -314315410 966414566 1048973819 2045160246</internalNodes>
      <leafValues>
        -0.66644996404647827 0.41567966341972351</leafValues></_>
    <_>
      <internalNodes>
        0 -1 421301 1843634857 2048571545 -175586356 -473626156
        1535751068 1797882705 -659863105 1871401864</internalNodes>
      <leafValues>
        -0.6767612099647522 0.46342232823371887</leafValues></_>
    <_>
      <internalNodes>
        0 -1 790853 -934286833 1978636682 -610926525 591634443
        1816714797 1393610880 -1475495587 713734568</internalNodes>
      <leafValues>
        -0.65575975179672241 0.47182354331016541</leafValues></_></weakClassifiers></stage7>
</opencv_storage>
