<?xml version="1.0"?>
<opencv_storage>
<stage5>
  <maxWeakCount>6</maxWeakCount>
  <stageThreshold>-1.5848985910415649</stageThreshold>
  <weakClassifiers>
    <_>
      <internalNodes>
        0 -1 269814 -1754802177 -61912625 -1005295617 2107039379
        974107647 -46234485 -830603265 -266005</internalNodes>
      <leafValues>
        -0.85687845945358276 -0.061452515423297882</leafValues></_>
    <_>
      <internalNodes>
        0 -1 883720 -379659393 -234303099 -1048346339 -1311971822
        -485523713 -375287037 -571737402 -386598060</internalNodes>
      <leafValues>
        -0.89250504970550537 0.072550863027572632</leafValues></_>
    <_>
      <internalNodes>
        0 -1 1049084 1002938095 -135794197 -1801892029 -1109559529
        2039982003 -1124660325 726190959 14838743</internalNodes>
      <leafValues>
        -0.72836834192276001 0.34233474731445312</leafValues></_>
    <_>
      <internalNodes>
        0 -1 218915 -10757697 1325643382 -15467298 41215922 -6397441
        -69884515 -179693564 -1982137443</internalNodes>
      <leafValues>
        -0.66510295867919922 0.46988978981971741</leafValues></_>
    <_>
      <internalNodes>
        0 -1 396647 -1572360395 -285951525 -1538665003 1576308499
        1005058041 -326413902 2093462651 -1890927910</internalNodes>
      <leafValues>
        -0.61994051933288574 0.51494461297988892</leafValues></_>
    <_>
      <internalNodes>
        0 -1 707701 -624739041 2039843825 -586874736 -408627937
        -543574331 -50243520 96897759 1799205672</internalNodes>
      <leafValues>
        -0.65328824520111084 0.496122807264328</leafValues></_></weakClassifiers></stage5>
</opencv_storage>
